<?xml version="1.0"?>
<opencv_storage>
<my_nn type_id="opencv-ml-ann-mlp">
  <layer_sizes type_id="opencv-matrix">
    <rows>1</rows>
    <cols>3</cols>
    <dt>i</dt>
    <data>
      256 20 36</data></layer_sizes>
  <activation_function>SIGMOID_SYM</activation_function>
  <f_param1>6.6666666666666663e-001</f_param1>
  <f_param2>1.7159000000000000e+000</f_param2>
  <min_val>-9.4999999999999996e-001</min_val>
  <max_val>9.4999999999999996e-001</max_val>
  <min_val1>-9.7999999999999998e-001</min_val1>
  <max_val1>9.7999999999999998e-001</max_val1>
  <training_params>
    <train_method>BACKPROP</train_method>
    <dw_scale>1.0000000000000001e-001</dw_scale>
    <moment_scale>1.0000000000000001e-001</moment_scale>
    <term_criteria><epsilon>9.9999997764825821e-003</epsilon>
      <iterations>300</iterations></term_criteria></training_params>
  <input_scale>
    1. -255. 1. -255. 1. -255. 1. -255. 1. -255. 1. -255. 1. -255. 1.
    -255. 1. -255. 1. -255. 1. -255. 1. -255. 1. -255. 1. -255. 1. -255.
    1. -255. 1. -255. 1. -255. 1. -255. 1. -255. 1. -255. 1. -255. 1.
    -255. 1. -255. 1. -255. 1. -255. 1. -255. 1. -255. 1. -255. 1. -255.
    1. -255. 1. -255. 1. -255. 1. -255. 1. -255. 1. -255. 1. -255. 1.
    -255. 1. -255. 1. -255. 1. -255. 1. -255. 1. -255. 1. -255. 1. -255.
    1. -255. 1. -255. 1. -255. 1.6890332866528416e-002
    -3.9899657989869710e+000 1.4942925123043625e-002
    -3.3908817754213327e+000 1.2705697507050289e-002
    -2.7265015105962473e+000 1.1006263182161359e-002
    -2.1821139676766248e+000 9.8652356687984992e-003
    -1.7497639664558939e+000 9.2576721989176582e-003
    -1.4495457403016405e+000 9.2844252831681493e-003
    -1.3107029492810325e+000 9.4498003253481178e-003
    -1.2260590933232218e+000 9.3376806529327644e-003
    -1.1234786105586938e+000 9.2392294714998997e-003
    -1.1512593212015070e+000 9.1255485336621880e-003
    -1.2086789032835570e+000 9.0625446532245982e-003
    -1.3619997664390657e+000 9.9885238134786933e-003
    -1.7634738792696634e+000 1.0616090938404725e-002
    -2.1499353498759306e+000 1. -255. 1. -255. 1.2932384880310701e-002
    -2.8287436528199610e+000 1.1377576591711649e-002
    -2.2111055930814736e+000 9.3415835306319226e-003
    -1.5168655746294992e+000 9.0248078256901128e-003
    -1.2325881977042541e+000 9.3685359477717247e-003
    -1.1970907044374983e+000 9.3664736033275808e-003
    -1.0953050159802349e+000 9.5764764321926155e-003
    -9.9951812628668146e-001 9.6136842984808554e-003
    -9.1367387385617782e-001 9.5883085936670116e-003
    -9.0625496724476040e-001 9.5446148830615855e-003
    -9.3887195066382467e-001 9.5661568474768085e-003
    -1.0303813831048909e+000 9.3058933597826403e-003
    -1.1276674775754385e+000 9.2803437990057348e-003
    -1.2726444796369865e+000 8.6666016790483101e-003
    -1.3333085205344768e+000 1. -255. 1. -255. 1.0748409357312251e-002
    -2.1738657925164029e+000 1.0234026783786300e-002
    -1.6657584261742835e+000 8.7382122973027523e-003
    -1.0902861665840140e+000 8.8216875658936236e-003
    -9.6474955408119989e-001 9.3389383529831390e-003
    -1.1345253609149017e+000 9.9528188006415327e-003
    -1.2796007371358129e+000 9.4878245626977085e-003
    -1.2409020325279414e+000 9.1315161259822985e-003
    -1.2387916237797876e+000 9.1265457962875305e-003
    -1.2390807009426372e+000 8.9686065701943350e-003
    -1.2586941065347184e+000 9.3989078371981040e-003
    -1.3763656204483603e+000 9.3990972602690046e-003
    -1.3700750773052119e+000 9.4023446805687073e-003
    -1.3915992479723942e+000 8.4030432624178017e-003
    -1.2292718621443641e+000 1. -255. 1. -255. 9.0087272540177021e-003
    -1.5813819724733185e+000 9.1985776809751629e-003
    -1.3256172502471986e+000 8.7231918393977231e-003
    -1.0161064627591780e+000 9.0911954852381290e-003
    -1.0055872339505063e+000 9.4627135078106540e-003
    -1.2026057455815362e+000 9.6113305723593157e-003
    -1.3940167069588036e+000 9.1268491463537514e-003
    -1.3107676515688380e+000 9.1144803006368083e-003
    -1.2331385486744901e+000 9.2910787988849022e-003
    -1.2326164539853972e+000 9.3900341541756378e-003
    -1.2887300208041941e+000 9.0966784150214516e-003
    -1.3199280380196126e+000 9.3149824023675675e-003
    -1.3373727234688058e+000 9.5335966860392255e-003
    -1.3524466187667312e+000 8.5713364835054325e-003
    -1.2124631641278629e+000 1. -255. 1. -255. 9.7338343626680989e-003
    -1.8120073434682371e+000 9.5527330592562690e-003
    -1.4155558271641249e+000 9.3721477687369985e-003
    -1.0547310963961409e+000 9.2457638430959201e-003
    -9.2329225044249541e-001 9.3431100931916956e-003
    -1.0365142525052500e+000 9.5567082688865108e-003
    -1.2513447621632565e+000 9.4636701298409006e-003
    -1.2419489767061209e+000 9.0211449617332278e-003
    -1.0402883665038702e+000 9.2270339056110852e-003
    -9.6458387223268771e-001 9.6116770668478891e-003
    -1.0106144453731287e+000 9.5035306354056964e-003
    -1.1327680543479401e+000 8.8867924328796376e-003
    -1.1287213811138572e+000 9.0091312829459411e-003
    -1.1618776311239283e+000 8.3157013812786614e-003
    -1.0744348168022102e+000 1. -255. 1. -255. 9.1154579486023759e-003
    -1.6194117460022599e+000 9.3947812250594568e-003
    -1.3973693207695381e+000 9.3779380489601750e-003
    -1.0973750506958231e+000 9.2714685558578994e-003
    -9.5151021462423879e-001 9.4361172606819838e-003
    -1.1008279242058943e+000 9.3738059735933021e-003
    -1.2081794365964700e+000 9.2856986879059841e-003
    -1.1858868968754599e+000 9.3360024376798485e-003
    -1.1352578964218696e+000 9.7524780528541084e-003
    -1.1128119262642808e+000 9.3882682163638417e-003
    -1.0296843951525276e+000 9.1804969423149758e-003
    -1.0778413437885690e+000 9.0483165004831608e-003
    -1.1591396121368955e+000 9.5447055926320013e-003
    -1.2718850463603955e+000 8.3170889192725438e-003
    -1.0522503664366314e+000 1. -255. 1. -255. 9.6148481893883614e-003
    -1.7945579987260634e+000 9.4166410571595825e-003
    -1.4373979427028705e+000 8.7083109334169951e-003
    -1.0698643776754635e+000 9.0580697394904881e-003
    -9.9195928169353620e-001 9.3315397049857970e-003
    -1.1740632205489632e+000 9.1223301612891848e-003
    -1.2660780671629246e+000 9.0141073453441217e-003
    -1.2981316144778352e+000 8.9340070518790157e-003
    -1.2715077369724257e+000 9.4422663217598804e-003
    -1.3052359478779409e+000 9.1638047625316795e-003
    -1.2711215406160610e+000 9.0240027869795472e-003
    -1.2791022617055343e+000 9.1853306533899552e-003
    -1.3484575695323866e+000 9.5743693323240130e-003
    -1.3602519274195666e+000 8.4624427329703742e-003
    -1.1114478258341813e+000 1. -255. 1. -255. 1.0638484511514204e-002
    -2.1404039810249276e+000 1.0006638409982577e-002
    -1.6899544501392243e+000 8.7199533470084835e-003
    -1.1613040090804854e+000 8.7752830736776508e-003
    -1.0599079405823655e+000 9.2265941982110737e-003
    -1.1427649503050983e+000 9.3833934836866622e-003
    -1.2503371817012476e+000 9.1705964551010433e-003
    -1.3081346365620798e+000 9.6557164992147580e-003
    -1.4169763962597657e+000 9.7534944550429336e-003
    -1.3722082976639292e+000 9.2891405868981494e-003
    -1.2367974628088947e+000 9.0037207009981742e-003
    -1.1615800117698867e+000 9.3415961737281141e-003
    -1.2308590914017206e+000 9.2772387357327908e-003
    -1.1770238944884985e+000 8.3808512241231540e-003
    -1.0895572194205885e+000 1. -255. 1. -255. 1.4122609359131941e-002
    -3.1713103905339617e+000 1.2120707593466671e-002
    -2.3999674407708089e+000 9.3937235449266278e-003
    -1.5750143143660313e+000 8.8676069661239119e-003
    -1.2844728690430487e+000 9.1685444522139909e-003
    -1.1543706828918094e+000 9.3180002401407561e-003
    -1.0984369283085929e+000 9.4486690464147642e-003
    -1.0769907934738430e+000 9.8732785735009439e-003
    -1.0325803841453072e+000 9.8983700067906411e-003
    -9.5783227099044099e-001 9.8278422570747866e-003
    -8.9564402436141566e-001 9.6245009413582668e-003
    -9.1250962814011216e-001 9.8288168345343901e-003
    -1.0394519847899815e+000 9.5797307391381724e-003
    -1.3086976604189315e+000 8.9799735184468623e-003
    -1.4833419590221142e+000 1. -255. 1. -255. 2.0815063731070831e-002
    -5.0614140246957735e+000 1.8254789106659553e-002
    -4.2608706084844137e+000 1.3527919661226242e-002
    -2.9641175079931275e+000 1.1566430188575940e-002
    -2.3282581390148449e+000 9.9163172792007467e-003
    -1.7819071244208231e+000 9.7530023418402785e-003
    -1.6105999700622349e+000 9.5367140968612898e-003
    -1.5030391234103218e+000 9.5242525247719225e-003
    -1.3695346005481761e+000 9.3031910347703799e-003
    -1.1877073887723519e+000 9.3280141414579295e-003
    -1.1445473351568880e+000 9.8002994314350094e-003
    -1.4613879835508172e+000 1.0797437044453916e-002
    -1.8969897171878369e+000 1.2809506090300236e-002
    -2.5900821314587081e+000 1.3282211896493588e-002
    -2.9577272191508470e+000 1. -255. 1. -255. 1. -255. 1. -255. 1.
    -255. 1. -255. 1. -255. 1. -255. 1. -255. 1. -255. 1. -255. 1. -255.
    1. -255. 1. -255. 1. -255. 1. -255. 1. -255. 1. -255. 1. -255. 1.
    -255. 1. -255. 1. -255. 1. -255. 1. -255. 1. -255. 1. -255. 1. -255.
    1. -255. 1. -255. 1. -255. 1. -255. 1. -255. 1. -255. 1. -255. 1.
    -255. 1. -255. 1. -255. 1. -255. 1. -255. 1. -255. 1. -255. 1. -255.
    1. -255. 1. -255. 1. -255. 1. -255. 1. -255. 1. -255. 1. -255. 1.
    -255.</input_scale>
  <output_scale>
    5.2631578947368418e-001 4.9999999999999994e-001
    5.2631578947368418e-001 4.9999999999999994e-001
    5.2631578947368418e-001 4.9999999999999994e-001
    5.2631578947368418e-001 4.9999999999999994e-001
    5.2631578947368418e-001 4.9999999999999994e-001
    5.2631578947368418e-001 4.9999999999999994e-001
    5.2631578947368418e-001 4.9999999999999994e-001
    5.2631578947368418e-001 4.9999999999999994e-001
    5.2631578947368418e-001 4.9999999999999994e-001
    5.2631578947368418e-001 4.9999999999999994e-001
    5.2631578947368418e-001 4.9999999999999994e-001
    5.2631578947368418e-001 4.9999999999999994e-001
    5.2631578947368418e-001 4.9999999999999994e-001
    5.2631578947368418e-001 4.9999999999999994e-001
    5.2631578947368418e-001 4.9999999999999994e-001
    5.2631578947368418e-001 4.9999999999999994e-001
    5.2631578947368418e-001 4.9999999999999994e-001
    5.2631578947368418e-001 4.9999999999999994e-001
    5.2631578947368418e-001 4.9999999999999994e-001
    5.2631578947368418e-001 4.9999999999999994e-001
    5.2631578947368418e-001 4.9999999999999994e-001
    5.2631578947368418e-001 4.9999999999999994e-001
    5.2631578947368418e-001 4.9999999999999994e-001
    5.2631578947368418e-001 4.9999999999999994e-001
    5.2631578947368418e-001 4.9999999999999994e-001
    5.2631578947368418e-001 4.9999999999999994e-001
    5.2631578947368418e-001 4.9999999999999994e-001
    5.2631578947368418e-001 4.9999999999999994e-001
    5.2631578947368418e-001 4.9999999999999994e-001
    5.2631578947368418e-001 4.9999999999999994e-001
    5.2631578947368418e-001 4.9999999999999994e-001
    5.2631578947368418e-001 4.9999999999999994e-001
    5.2631578947368418e-001 4.9999999999999994e-001
    5.2631578947368418e-001 4.9999999999999994e-001
    5.2631578947368418e-001 4.9999999999999994e-001
    5.2631578947368418e-001 4.9999999999999994e-001</output_scale>
  <inv_output_scale>
    1.8999999999999999e+000 -9.4999999999999996e-001
    1.8999999999999999e+000 -9.4999999999999996e-001
    1.8999999999999999e+000 -9.4999999999999996e-001
    1.8999999999999999e+000 -9.4999999999999996e-001
    1.8999999999999999e+000 -9.4999999999999996e-001
    1.8999999999999999e+000 -9.4999999999999996e-001
    1.8999999999999999e+000 -9.4999999999999996e-001
    1.8999999999999999e+000 -9.4999999999999996e-001
    1.8999999999999999e+000 -9.4999999999999996e-001
    1.8999999999999999e+000 -9.4999999999999996e-001
    1.8999999999999999e+000 -9.4999999999999996e-001
    1.8999999999999999e+000 -9.4999999999999996e-001
    1.8999999999999999e+000 -9.4999999999999996e-001
    1.8999999999999999e+000 -9.4999999999999996e-001
    1.8999999999999999e+000 -9.4999999999999996e-001
    1.8999999999999999e+000 -9.4999999999999996e-001
    1.8999999999999999e+000 -9.4999999999999996e-001
    1.8999999999999999e+000 -9.4999999999999996e-001
    1.8999999999999999e+000 -9.4999999999999996e-001
    1.8999999999999999e+000 -9.4999999999999996e-001
    1.8999999999999999e+000 -9.4999999999999996e-001
    1.8999999999999999e+000 -9.4999999999999996e-001
    1.8999999999999999e+000 -9.4999999999999996e-001
    1.8999999999999999e+000 -9.4999999999999996e-001
    1.8999999999999999e+000 -9.4999999999999996e-001
    1.8999999999999999e+000 -9.4999999999999996e-001
    1.8999999999999999e+000 -9.4999999999999996e-001
    1.8999999999999999e+000 -9.4999999999999996e-001
    1.8999999999999999e+000 -9.4999999999999996e-001
    1.8999999999999999e+000 -9.4999999999999996e-001
    1.8999999999999999e+000 -9.4999999999999996e-001
    1.8999999999999999e+000 -9.4999999999999996e-001
    1.8999999999999999e+000 -9.4999999999999996e-001
    1.8999999999999999e+000 -9.4999999999999996e-001
    1.8999999999999999e+000 -9.4999999999999996e-001
    1.8999999999999999e+000 -9.4999999999999996e-001</inv_output_scale>
  <weights>
    <_>
      -7.0663511885764698e-003 -3.1319616385449660e-003
      -8.2230975538369637e-004 -6.5059386202973336e-003
      -7.6566506050802204e-003 -2.5135917027173738e-003
      7.3853611719644219e-003 7.9154135231619127e-003
      -6.6065326771522596e-003 5.6815807848128097e-003
      -2.8859582044450205e-003 -1.4997155772638029e-004
      -3.8116735313184925e-003 1.6491189986482799e-003
      2.4628472888740698e-003 -7.0593483148477399e-003
      -4.5206809314938363e-004 -7.7769797901344993e-003
      -6.4497761595361551e-003 4.2831237567853295e-003
      6.0334746755879316e-003 -5.7407652723476363e-004
      -2.2347291697526179e-004 1.3823718927301846e-003
      -1.3648459855269699e-003 -5.8032754119277516e-003
      5.8545022955124922e-003 8.3835706630365631e-003
      5.0982784479872492e-003 3.4279400634000794e-003
      -2.4291674705546099e-003 -5.1657657548539182e-003
      7.9366060063911399e-003 -7.8096636126078062e-003
      7.6695606802876888e-003 2.0798036161872414e-004
      -3.3431628171232894e-003 -4.7783069655159150e-003
      6.4689330789815570e-003 -3.6727117020537671e-003
      6.5761592357520869e-003 3.6757756851955965e-003
      1.9119944212550929e-003 -6.4081608281463503e-004
      1.2250403993621840e-004 -1.6654981125980119e-003
      -6.1148443659441686e-003 6.8960908474606361e-003
      -2.2653977211049255e-003 7.7156064109148124e-004
      -1.8683093333959810e-003 -3.6364007152303005e-003
      -3.9721893392303496e-003 -4.7602745329191334e-003
      -7.2724527103833862e-003 -3.1526555145707388e-003
      -6.2285402879325314e-003 2.9997690734318223e-004
      4.1694987753823225e-004 -4.1019888305862170e-003
      -3.4133715570219443e-003 -3.5940501525300885e-003
      -7.5906433590468508e-004 7.9085484991208658e-004
      -2.0789666146742770e-003 -7.1497073140653639e-003
      1.1549039706394046e-004 3.8643447492024896e-003
      -7.3740426880745721e-003 -2.2764388234244931e-003
      6.4188169205616199e-003 6.4922773781486533e-003
      4.5586038905325570e-003 4.1551643999768687e-003
      -6.0825806808190112e-003 -3.8154384463217838e-003
      -4.9992071096903196e-003 -6.3441466317719249e-003
      -8.1808702516023566e-004 5.0616160397929455e-003
      4.6304113684944009e-003 5.2245084383409886e-003
      6.9520611864595642e-004 -1.1749247869383686e-003
      -4.1667928654633918e-003 2.8556613457868018e-003
      -3.8576507461284783e-005 -6.7054288557298735e-003
      -6.3238538962317650e-003 6.6980239044530281e-003
      7.1855964787870394e-003 4.6400732479922610e-003
      3.7017509521545793e-003 -4.7458397991462283e-003
      -1.8314513107522577e-003 3.3768407503564513e-003
      5.6244408674896084e-003 -1.1066556301124976e-003
      3.8585405716435837e-003 2.6526686587970052e-003
      7.1976839157452729e-003 3.9630923013030620e-003
      5.4821963212349500e-003 4.5682925188415355e-003
      -7.0983421454512956e-003 7.8220940405086276e-003
      -4.4153955852730522e-003 6.0759083072142695e-004
      1.5264434768113178e-004 -1.3462991450072211e-003
      -1.5081754747336964e-003 -5.3628847173237881e-003
      4.3375985210977474e-005 2.1838057855325080e-003
      -3.7359448471307689e-003 -3.8767601640108521e-003
      7.5657401247496850e-003 6.5278687945550407e-003
      2.6635564188691140e-003 -4.2968846503539642e-003
      1.2914101705729509e-003 5.0569653860899665e-003
      4.5583308353638842e-003 -4.7300376068200103e-003
      3.8307401341391759e-003 9.6493059990812163e-005
      -2.4088011259102400e-003 -3.2084264953350650e-003
      5.6845368971683813e-004 6.3362240264974124e-003
      6.2697531126484462e-004 4.6551249113117605e-003
      -5.2554289070576533e-003 5.5191164762478078e-003
      2.5971352173348207e-003 -5.7410137196124925e-003
      -8.4555987775231502e-004 5.3154233922697641e-003
      -2.9343514517174004e-003 5.0236499396701826e-003
      2.4585156130597762e-003 2.7527830951445220e-003
      -5.9089750013710477e-003 -6.3785893862011722e-003
      -7.2747484030453126e-003 -5.4511013710105763e-003
      -4.2514176556096017e-003 -1.6759874095471710e-003
      -3.8100180541290221e-003 8.0335507785109089e-003
      4.4775607667893310e-003 -4.9652075045945295e-003
      6.6441744338137558e-003 3.8373968710878692e-003
      -1.0230843994065712e-003 -5.8698092701555803e-003
      4.5495565541691675e-004 6.0451431536019838e-003
      5.1057019714793751e-003 -5.2616475711867051e-003
      -1.4193274756726609e-003 2.2890070356473588e-003
      -1.2661027447330255e-003 6.7178368998838103e-003
      4.7055059760036447e-003 -9.7100364135747756e-004
      -5.8918481440939428e-004 7.6093570394148878e-003
      -6.9045486745644719e-003 -5.1390507896230796e-003
      -6.6680513899340333e-003 1.8160020812462735e-003
      5.2114083899875525e-003 4.7573131229552137e-003
      -7.1671963101514486e-003 -5.7120579800816395e-003
      6.9490005142827807e-003 3.9769995954036276e-003
      7.3298743623825113e-003 1.1851664379024555e-003
      2.2522510372015156e-003 7.7490468049950132e-003
      -2.7634025320132892e-003 6.7945714913456663e-004
      -6.9199219606441995e-003 3.8961318634565464e-004
      -5.3044165343767548e-003 3.4716385560945098e-003
      -3.3327156398291198e-003 -5.4701229994282780e-003
      5.6815234906614168e-003 2.7914587924716462e-003
      -5.6773640904295266e-003 -5.5501202520746497e-003
      -6.5386443029974402e-003 -2.7404267245458016e-003
      1.2905348999079458e-003 5.9292240041867389e-003
      -1.3894436854090977e-003 7.4779958630983509e-003
      1.8696698775298858e-003 4.8955639675588988e-003
      5.4397030759231763e-003 -1.5516529861300400e-003
      3.1905527595689370e-003 1.5050554423592889e-003
      -3.8279735161005930e-003 -6.2687360903281543e-003
      4.6179695187763001e-003 5.7257871716729974e-003
      7.0308260387036883e-003 -6.8895623032408588e-003
      6.2118940859057841e-003 5.3810088762167325e-003
      -4.7241892752347033e-003 1.5857247167428393e-003
      -4.5106619671059223e-003 -2.5249717452867902e-003
      -2.8525738228756085e-003 -5.2045147178790665e-003
      -6.7469584794369467e-003 5.7334724747696618e-003
      -3.2707859668475920e-003 -2.2074299542697070e-003
      3.6811385920037152e-003 -4.2018474138057335e-003
      2.0163351657966413e-003 -1.7032160759407184e-003
      -3.9444871613013716e-003 4.8861732440380022e-003
      -4.7473500074408344e-003 2.5025379685277745e-003
      6.9875899968952458e-004 8.3519478126546176e-004
      -4.7372103465174956e-003 2.8807146763283596e-003
      7.4763665430818849e-003 -6.9805842757968313e-003
      -7.5142779422020019e-003 -8.7179496190021926e-004
      2.3918527541416288e-003 -5.4363865842363499e-003
      -3.0035654448148088e-003 1.5501265928924298e-003
      1.1160323414520824e-003 -4.2392822904412228e-003
      -7.4310452993310043e-003 -5.2245170606474555e-003
      -5.7056115976433144e-003 -4.4818412295281052e-003
      -1.3036430775199275e-003 5.4394407101232998e-003
      -1.8147328713489588e-003 9.5472125516615801e-004
      9.0883264828248503e-004 -6.7554372448223824e-003
      2.9319868780493465e-003 -8.8395506055731672e-004
      6.5969121881302734e-003 1.8585236852394474e-003
      5.7451431532205615e-004 -4.8198256564624502e-003
      7.4257130328678677e-003 6.1862260539440163e-003
      7.3422157726406216e-003 3.4339514428832043e-005
      4.9694542186913436e-003 -7.5676889203338460e-003
      -2.2193916727457669e-003 -1.5872760296088606e-003
      -6.2988818743796591e-003 -5.9959983864545305e-003
      -2.1476909646161313e-004 -7.1120191248292535e-003
      -5.8309125742124776e-003 7.1973707106733785e-003
      -5.1845801805927884e-003 -1.7818882410173230e-003
      1.8477288850464613e-003 2.6920065974321574e-003
      -2.3148316747271486e-003 2.6366774545244014e-005
      -2.6344329869345210e-003 2.4500796986380441e-003
      -3.0329498743487042e-003 -3.2157842342024285e-003
      8.3155495862699623e-004 6.0959934044081815e-003
      3.3604014176543216e-003 7.7152566982886164e-003
      -2.6923832041618589e-003 6.3539837448357067e-003
      1.1217189572627199e-003 4.9071815334038637e-003
      -1.5564285777422257e-003 5.1740978133156543e-003
      6.3405103938565929e-004 -1.2116356202609426e-003
      6.5708231457763337e-003 1.6202411728474862e-003
      3.9822913004381186e-003 -9.3203112704490221e-004
      -1.9798973212153716e-003 -3.5510147590843491e-003
      3.9935831914774591e-003 -1.4184941144052908e-003
      -4.8482320023704607e-003 4.9843871857319080e-003
      -7.4785644783740427e-003 1.0463205532810348e-004
      5.3070600947835453e-003 5.8613401145660620e-003
      2.5971048761594096e-003 -5.5117518039371552e-003
      6.4068018314137644e-003 2.2036867986016150e-004
      3.8829057505638718e-003 -2.8064345792405011e-003
      -2.5892566022327856e-003 6.2137183473005180e-004
      -7.1207925751457012e-004 5.5094327644836264e-003
      -5.4058990587612524e-003 7.3275113961233469e-003
      -5.1578474074434714e-003 -7.7035505769233086e-003
      1.3846086695131299e-003 -1.6584114797159875e-003
      -2.9440576290539031e-003 -1.0098550047458025e-004
      -4.0903245217602524e-003 7.6178394817020172e-003
      -2.1721718483859826e-003 5.1998289599335000e-003
      -2.6141611941939654e-003 5.6292816904612158e-003
      3.7126963604332155e-003 2.5237966991569641e-003
      -6.9989663817691360e-003 6.4607995578925131e-003
      -2.8550749818133454e-003 4.6150234751790526e-003
      -7.3281266741545975e-003 3.8334905294075366e-003
      -2.2286014572325623e-003 -2.9723639553320509e-003
      -2.6503318392839962e-003 8.5332776752657640e-003
      -4.2209329094965572e-003 1.3682602136777667e-003
      6.6846422834353700e-003 3.7209744247194173e-003
      4.4250504968399561e-003 -6.5956286742284596e-003
      6.8972026343937188e-003 -2.3398466580520369e-003
      6.5238100890272792e-003 6.4344464273285006e-003
      -5.7473738409925257e-003 8.0483933355503575e-003
      1.4209841410670449e-003 -1.0526544797000094e-003
      1.4200425774193710e-003 5.6857784452764735e-003
      1.8873706391780759e-004 7.1787919945878395e-003
      5.6636149096858657e-003 -6.5183046597727780e-003
      5.9762970801387162e-003 -1.4642033131198199e-003
      7.6327925254897448e-003 1.7175476678756829e-004
      -2.1016642716474771e-003 2.7096502264957923e-003
      3.2695433105053693e-004 -4.5689324006158811e-003
      -5.6925306258396131e-003 -6.3406182076145836e-004
      5.5221915267576124e-003 1.9244490511258581e-003
      -7.1530809183460997e-003 7.3979814100477012e-003
      3.7239639825443517e-003 -4.9504272859837535e-003
      -2.6086920635034184e-003 -4.0993264443526314e-003
      1.3581009513022730e-003 5.4343947004542609e-003
      7.1132841266037918e-003 -5.1504799529257508e-003
      -6.7896315117076103e-003 -1.0486686533333199e-003
      -9.5115982902549932e-004 1.7447227764387952e-003
      -1.3377828612986628e-003 1.9354980158524928e-003
      -5.5760273856156738e-003 2.4445396308166727e-003
      -2.1814132428816307e-003 -6.3255281841593904e-003
      6.1979838492773158e-003 7.5064508396653767e-003
      -6.6900829093865400e-003 3.3681892599730584e-003
      1.5536573937160059e-004 7.5346163877429255e-004
      2.0987961745195316e-003 -4.2983508803101471e-003
      -5.1919392388560161e-003 7.4115082985202292e-003
      3.9594618148994197e-003 -6.5932303413838295e-003
      9.3096788123442852e-004 -3.4129167706853031e-003
      -9.8380805501905428e-004 -5.9441175481349620e-004
      -7.6459368964882334e-003 -4.8102371143984319e-003
      3.5040085801457273e-003 3.0473444775665653e-003
      -8.2897730988502959e-004 -4.7029974561896793e-003
      -4.6365781087762056e-003 -3.3797342847089085e-003
      3.4000116922754098e-003 -3.5081460967955995e-003
      2.3132548505953960e-003 -6.6469402669849646e-004
      4.8350652867896584e-003 6.8550455209174304e-003
      3.6178381485149017e-003 7.5018861785153164e-003
      -2.8557121261048586e-003 -4.5163906438229979e-003
      -5.2333632585958578e-003 3.7777521879836847e-003
      3.9224610646306146e-003 3.6682705119872204e-003
      -4.1006305525292776e-003 -4.4781787860479622e-003
      6.8884481040766632e-003 3.5478705112114302e-003
      -6.5571114923654978e-004 4.1637280467261700e-003
      -6.2721707102174409e-003 -6.1744367446903816e-003
      1.5576587913516396e-003 5.1891015083928239e-004
      7.5373237520986415e-003 6.9904459887295423e-003
      -4.9054895913381294e-003 6.8085261772621404e-003
      1.6706277747776635e-003 -5.6783007961005180e-004
      7.0043996831801120e-003 -6.4625969376937925e-003
      4.3940070898492835e-003 -2.5879065636397988e-004
      6.5804692572577353e-003 -5.2414142721286562e-003
      4.2167906937112358e-003 -2.0508017934814994e-003
      2.6558636863456921e-003 5.0937781739329203e-003
      8.9574614424994695e-004 8.3333702754533165e-004
      8.8120915434470410e-004 6.0473245292761886e-003
      1.8178153051440359e-004 -6.6416714779355176e-003
      -2.1819580288634649e-003 -1.8620734101985870e-003
      -2.8646053496677757e-003 3.7519896353595205e-003
      -5.8618711481591068e-003 -4.6992777131270279e-003
      1.9920015568731285e-003 1.4884692599755759e-003
      6.1407112080703336e-003 -4.3983981131152407e-003
      6.7983339250243906e-003 -7.5988526332208912e-003
      -6.8648205655860110e-003 5.2780324127499178e-003
      6.9806412991182355e-003 3.4344900079639564e-003
      5.0241752427283067e-003 -7.6834618875100107e-003
      4.6446368920086637e-003 1.0310510250608393e-003
      -4.0227366035935149e-004 -4.1177386620994518e-003
      8.9504381648615136e-004 -5.7985998497101952e-003
      4.7644768872337631e-003 -2.7791196413591264e-003
      3.0566155903929927e-003 -6.5592570825379060e-003
      -5.3470020447250631e-003 -7.3932646173664211e-003
      2.3982149656899435e-003 -3.8154986752776871e-003
      1.2821594185055485e-003 -4.0452684687005977e-003
      4.7131959052538110e-003 -7.2912198811254285e-003
      -5.1844187756026512e-003 -1.0968140046899557e-003
      8.3584037983172740e-004 -2.3562177537187818e-004
      -3.9952551235017527e-003 8.5961370268391752e-004
      -7.7826741856517360e-003 4.6825516100117114e-003
      -2.5818531215658965e-003 -6.5462192792870152e-003
      -7.6913407627428527e-004 4.4451487356941613e-003
      3.5680494661463080e-003 -3.8027244694347926e-003
      6.4005060769433755e-003 7.7011090636929054e-003
      6.6374189747320112e-003 -4.1838935977758628e-003
      2.8582284215295751e-003 -2.6889826263963080e-003
      -5.5880575138352283e-003 -3.2602647522412935e-004
      -1.7045033207549029e-003 5.9214697095993935e-003
      -4.6267334517639588e-003 -7.0257392119302342e-003
      2.9854127335874632e-004 -2.5999074679163773e-004
      -2.4828470955795090e-003 3.6766403307545753e-005
      -1.6704144400436573e-005 -7.3736388878742230e-003
      -8.0183634037285876e-003 -2.7671277134781536e-003
      5.2582653309940705e-003 -1.0675110729061507e-003
      5.7791731368454858e-003 6.3691096365660572e-003
      2.9712986781603543e-004 3.1604061800571829e-003
      4.8875138384258570e-003 3.3954529557041167e-003
      -1.7503400599222100e-003 5.1703098031679016e-003
      2.7428995977633267e-003 -3.9801872658258497e-003
      3.5828166505660229e-003 7.8245366499062816e-003
      -1.1962341534010359e-004 5.3461736826368792e-004
      6.6574583062148250e-003 -3.0348659700268534e-003
      5.1771842641048138e-004 4.1861520137680148e-003
      4.1801522728879036e-003 -3.3537100957329270e-003
      -5.1454786915457575e-003 3.9662633475805809e-003
      -2.0701995038261648e-003 -2.3034838827941276e-003
      2.8384350330214543e-003 -3.3080262746718919e-003
      5.8607541771592770e-003 -2.3394546103694832e-003
      -5.8312576087685454e-003 -3.8971814873350334e-003
      7.7540380287699469e-003 7.4258328526102466e-004
      3.2992865668297574e-004 7.6557821481872308e-004
      -7.4650268785290850e-003 6.5201662574005731e-003
      5.6590584767506899e-003 -2.7271365864631539e-004
      6.5554842185609336e-003 5.6813098029397302e-003
      4.3961768196626927e-003 -2.2239957087443331e-003
      2.5186837173033338e-003 4.3373500003466865e-003
      3.6275371888093389e-003 6.8873690741517741e-004
      -3.5323890982742160e-003 -4.7465693581480208e-003
      -2.2633901966079444e-003 -1.5536335145842576e-003
      -3.9482267030607087e-004 -2.4785126963879807e-003
      5.0352499556006328e-003 2.6784962041448627e-003
      2.2609698839044061e-003 3.1569835501805846e-003
      1.5818909759560903e-003 -8.9722355324035473e-004
      4.5717871993566596e-003 5.3143381343638465e-003
      5.6847880644009564e-003 7.1761700766000648e-003
      4.6827332884301649e-003 -3.1152058183253847e-003
      6.4222562653704820e-003 -7.7241796471306150e-003
      -3.0253102819659487e-003 -2.5274026824707594e-003
      -7.6456733395918143e-003 5.5783675827391459e-003
      3.6563933631444971e-003 7.0858067818832535e-003
      4.7789325373843490e-004 2.8991393368547141e-003
      -6.9891886352700903e-003 -3.0950691463382139e-003
      2.6571943927436621e-003 6.4204992880043045e-004
      -5.4775238224429867e-003 1.4810961217239576e-003
      -3.7806571649939082e-004 6.2942663731229967e-003
      2.5228446334823176e-003 -7.6017789566905046e-003
      -3.2676590936598130e-004 5.1635969247056440e-003
      3.5343711500253538e-003 -2.0645377733239365e-003
      -5.0463920173950925e-003 -3.7006491040940796e-003
      3.4835236758295595e-003 -7.2572950585033883e-003
      2.1037787846337314e-003 -1.5527457024456452e-003
      -5.1179470093045487e-003 4.5235195436457935e-003
      -1.6552934518041555e-003 -1.9040229385688754e-003
      -3.7947561518664004e-003 -7.1117149963679984e-003
      6.0096983203772195e-003 -3.0776459605025481e-003
      -2.0451504599961622e-003 5.3301272960771815e-003
      -7.7206258751642536e-003 1.9199545241896246e-003
      6.5001278116193703e-003 -6.7104642712043907e-003
      3.0458337283512820e-003 6.0515092876426528e-003
      -1.6630724002886848e-003 6.9763608246975108e-003
      -8.5100316917760283e-004 -9.7333759772730299e-004
      -4.3725481403974328e-003 6.7060671873858304e-003
      -3.0139299076392986e-003 -4.2902241124221623e-003
      5.6335635703275034e-003 -5.5807868491453416e-003
      4.3818226284959901e-003 -6.5058032187494605e-003
      -7.1997428647105734e-003 -3.1180825657475099e-003
      7.6582182282793542e-003 7.9088213734993390e-003
      -5.7507329237743831e-003 3.2654936494659912e-005
      -6.1219133179846554e-004 7.1440386782670017e-003
      1.9008246555611559e-003 1.8385239467471649e-003
      2.5376205811046795e-003 -5.4631106318227462e-003
      5.9448895034687633e-003 3.6677180130459293e-003
      4.4757676370378039e-003 -2.9522982139032839e-003
      5.2864349618589508e-004 -2.1037093179557338e-003
      9.0239455492161446e-004 3.7785344345003333e-003
      -2.4754118401366502e-003 4.0098371082750517e-003
      6.5354626912160528e-003 -2.0734191434392747e-003
      2.1550468062972858e-003 -4.5468989271847662e-003
      -3.3964100192714216e-003 5.5215794185594158e-003
      1.8028007508686175e-003 -3.1522647597584880e-003
      -7.6852512468239152e-004 4.9130875154068153e-003
      -7.5841193463422668e-003 -5.7783190944541239e-003
      2.7450162325495815e-003 -3.4553696701105281e-003
      -2.7681591144632718e-003 -6.1263013111600142e-003
      4.3641535278693515e-003 -3.2296988829747151e-003
      4.2473707042947843e-003 6.9024294112012647e-003
      -1.7916501990702023e-003 -1.5547686909116371e-003
      7.1076356733383280e-003 5.1578671931255806e-003
      3.6961394570344556e-003 -1.9683937259258291e-003
      -3.7138344330466568e-003 1.3136975651680679e-003
      -7.4470372879250563e-003 4.5937850058649365e-003
      -2.3001393749597951e-003 3.0574137129588210e-003
      -2.8668459298712839e-003 -4.0035796376992295e-003
      -5.3172559270517651e-003 3.5378992888393727e-003
      -6.8452018774844961e-003 -5.8142115318983237e-003
      -3.8213997117489619e-003 -5.3830122308941471e-004
      -3.5854034260344933e-003 6.9779015386881070e-003
      -6.9671040691559561e-003 -5.6504531786221290e-003
      -5.1070042965106486e-003 7.5436750608878333e-004
      4.9896822899841205e-003 -2.5114565352654908e-003
      -7.4149404441528977e-003 -5.4206886386752124e-003
      -4.8054786539637202e-003 -7.8200382537867864e-003
      5.2453656936926824e-003 7.8809827314484486e-003
      -2.9052811372051314e-003 1.7006224799546105e-003
      6.6489318188505059e-003 -3.6662998815517336e-003
      6.3683900709619991e-003 -4.3631900143948791e-004
      5.4096459361975624e-003 -2.2565232063023908e-003
      -1.3147358666693969e-003 -1.0022463092299897e-003
      -2.5564051311945625e-003 -3.8879689655986920e-003
      7.3002325933043547e-003 2.2664941068943228e-003
      -6.8375389831514246e-003 3.6973818996990796e-003
      3.5163564384115965e-003 -7.1704186031572347e-003
      3.9419824841862823e-003 2.4105432453014734e-003
      -1.9510389367025352e-003 2.2555020643511316e-003
      -6.7116512704148566e-004 1.0117742808672201e-003
      -4.8428535861682834e-003 -6.7494895890495721e-003
      -1.2308029085718512e-003 6.7885132774445347e-003
      -3.6534447747064353e-003 7.9055099355563197e-004
      -4.6916062607197870e-003 -7.0340828330409007e-003
      4.1152430256707765e-003 6.7813050898996256e-003
      -7.1218408016377622e-003 6.9123372464217599e-003
      -9.3060217267684374e-004 3.5355751594146933e-003
      6.2038826321004666e-003 -8.1385019869692453e-003
      -2.6813752201993099e-003 7.8438563514043359e-003
      3.4185433858637884e-003 -5.5085034241668038e-004
      3.9152602614411260e-003 -1.9437586387512577e-003
      7.7075198645519894e-003 -6.3649939727584157e-003
      7.8299974395785957e-003 -1.4495620215435549e-003
      6.8838899929719102e-003 -1.5329197649744419e-003
      5.8039496562219788e-003 3.4730047949388353e-003
      -3.8907951922559723e-003 4.9599213083985011e-003
      -3.9296598799279606e-003 4.9637579751345903e-003
      -6.5442127096924504e-003 -1.0842527700284752e-003
      -3.8682323932744105e-003 2.5863422698708029e-003
      -5.6451029303246176e-003 -1.6131319206694804e-003
      1.0516063990703968e-003 1.2966193037943464e-003
      -1.0456822026861166e-003 -7.1533221507116664e-003
      -9.7841451277462529e-005 6.0901560917530377e-003
      5.9826244093086744e-003 -3.5076384575607918e-003
      3.1049807036084530e-003 -1.9067911373211836e-003
      -5.8065608383234778e-004 3.5291997508212765e-003
      1.1528681752229113e-003 1.9677690412228327e-003
      5.8223621051272396e-003 -6.2520682745665799e-003
      3.8090654533134119e-003 -6.0502328839977964e-004
      6.3427728146622717e-003 1.6183204691015117e-003
      3.3884374195063418e-003 4.6962200900367082e-003
      7.0965584158989223e-003 -1.0477713110646767e-003
      -4.6538728966207896e-003 -2.0927256539234208e-003
      5.1937064386791895e-003 1.3376779828915357e-003
      6.9643046934913071e-003 -2.6776988299529992e-003
      4.1197457507459378e-003 -2.7786322179744554e-003
      7.3024165942037807e-003 -1.6998580021490666e-003
      5.0624947836271309e-003 -1.1273258340481339e-003
      7.0773179116083943e-003 2.1624916308626623e-003
      1.7099092523883493e-003 3.5113609172069595e-003
      -1.7394214191535794e-003 2.3723895080046639e-003
      -2.9217695933716412e-003 1.2707051298172138e-003
      1.0597927819142961e-003 -7.9487698388117575e-003
      -7.3347224484586219e-003 -3.1292265070114612e-003
      -2.2846993361287020e-003 5.2703883864989361e-003
      2.2541652357884914e-003 -3.3863811758596822e-003
      -4.3111931755605397e-003 3.4730607394003929e-003
      -7.6326339928644632e-003 7.5922850125906948e-003
      -5.9909558941530650e-003 -1.8704881641004392e-003
      -6.5014727583742179e-003 -2.6516398203003939e-003
      -3.5123671803328209e-003 7.8742944262364511e-003
      -4.7245944724261029e-003 -3.2996363962852979e-003
      -7.9433830544428496e-003 -1.9931867151556969e-003
      2.8040862009452678e-004 4.1799040497602948e-003
      7.7420685007847188e-003 6.1375582112093230e-003
      -1.9007309830726901e-003 3.6611810435512719e-003
      1.5033977718767833e-003 -4.0287592065812294e-003
      8.8293135788206263e-004 -1.6282343185158431e-003
      -7.1663980494657137e-003 -4.4100008428292099e-003
      -6.0538189538006555e-003 5.6519890148472602e-003
      -3.8327770456947222e-003 9.9486599362304381e-004
      -2.2104445713336546e-003 -6.8297159718442024e-003
      -2.5575842039215696e-003 -7.7834687038150904e-003
      -1.7905095254054475e-003 -6.0230043094671882e-003
      -6.3915960449261421e-003 -1.9578615008198192e-003
      -4.6294402297414571e-003 4.9799214207102644e-003
      -1.2015014080667367e-003 3.4681364525110713e-003
      -2.9874309853463897e-003 -4.9473966522549902e-003
      -3.3263482812423157e-003 5.4183088422807731e-003
      4.3567693828645898e-003 6.8396547728612651e-003
      5.4014804444147725e-003 5.4900821927583313e-003
      -4.6337986103159074e-004 -6.0288097088895343e-003
      4.6916349139013731e-003 1.0701112826099644e-003
      5.0291859563398609e-003 -6.1350616967954120e-003
      7.3593544193161940e-003 -3.8198477634316052e-003
      5.3673346130950622e-003 1.0064547322598115e-003
      2.6391042485175292e-003 1.8575446750671643e-003
      1.1549660463587501e-003 -7.8987155442711583e-003
      6.2309970402336596e-003 7.4276348377517835e-003
      -8.3870935699605531e-004 4.8731496427108527e-003
      2.9091008266545456e-003 3.1030061005658124e-003
      -3.3222067879123381e-003 7.7032049501501703e-003
      -1.3646110875430154e-004 2.2777605100310207e-003
      2.3518125394824532e-004 -7.0736993635664306e-004
      6.4967086821943474e-003 -4.4525591992864806e-003
      -4.4723741599284137e-003 -4.1150992309099488e-003
      -3.7976761565231580e-003 -6.2857045991812875e-003
      4.7168576636201828e-003 -4.0660375709663859e-003
      5.0127236926181713e-003 4.3181499123920849e-003
      1.8497413421658189e-003 4.8265413923573707e-003
      2.9522626814467044e-003 -4.1446985794048779e-003
      5.7797679081011332e-003 1.4829385496218582e-004
      5.9940100341796443e-004 -2.8601536942819538e-003
      -7.2583811546893312e-003 2.9772632618527586e-003
      4.2438265343211620e-003 -2.4780429665360137e-003
      6.5854428676848410e-003 -2.1897574910606458e-003
      4.0919558519024303e-005 -2.9496005829577087e-003
      5.4552900007985771e-003 -1.8471758517286864e-003
      7.1195905612196340e+000 1.8480489580004072e-001
      3.3498969622908997e-001 -2.8876582361017805e-001
      -2.4112205617432761e-001 1.1976768189390065e-002
      -4.4335202537564211e-001 -2.5523514674966014e-001
      6.7585088128352888e-001 4.2837461232407059e-001
      6.4445033002579921e-002 -6.3019032988401091e-001
      8.1035223700424028e-002 5.9827678696730457e-001
      -9.3269408466086917e-002 2.1425738155171539e-001
      -1.4469106637558662e-001 1.2445574815452085e+000
      -7.4876086772392969e-001 -1.8723421277882676e-001
      9.6776662574218264e+000 3.3417194019782331e-001
      3.6952246837661074e-001 -5.1792795194985930e-001
      -2.8927704601550130e-001 -3.4299534692117530e-002
      -1.0148256973116765e-001 -2.2411206023634855e-001
      3.2859728230085561e-001 4.3173653649837224e-001
      -2.0415759968798786e-001 -9.6154277681111144e-001
      3.2209251995622440e-001 6.7421772505439304e-001
      -1.7273903012205497e-001 2.0244119806134706e-001
      -1.9442983805570441e-001 1.1250304185870337e+000
      -4.4585060111752373e-001 -1.7113609518905051e-001
      1.1137032253852942e+001 2.1422878972409631e-001
      1.9266483492845091e-001 -5.0589733823941319e-001
      -1.6840162063966591e-001 7.7501285711337950e-003
      1.9779699271960363e-001 -2.6650566823414290e-001
      1.7651966362556712e-001 4.5213801054535657e-001
      -2.7993716909939792e-001 -8.0817058181487000e-001
      3.3459625774437696e-001 6.8139590102077785e-001
      -4.5510604902255192e-001 2.0000134849984455e-001
      -3.1666510206822812e-001 7.6586287859263913e-001
      -2.1153825242850258e-001 -4.6571024139366972e-002
      9.1505322156913671e+000 2.5067795052420370e-002
      1.7787749605648065e-001 -2.8535367879571322e-001
      -1.8589218738285057e-001 1.1320438479347855e-002
      1.6841302447925735e-001 -1.3877284820370814e-001
      3.3378553387658155e-001 2.2849748592715996e-001
      2.5880584073159310e-002 -3.2305219079832348e-001
      -2.5026483821561940e-001 6.7369611678311736e-001
      -4.9086365369920332e-001 -2.0704242866245715e-002
      -3.3809978181131251e-001 2.0289187799839450e-001
      -2.2847511685345512e-001 -2.8764204749582276e-002
      9.0711606620041838e+000 2.7975427274324055e-001
      1.9216828818298390e-001 -2.3467324283596797e-001
      -4.0681655123453458e-001 4.6506668668043531e-004
      -4.5041632985293657e-002 -9.9133370547108093e-002
      4.4115911243959316e-001 1.5157666025809949e-001
      4.8462064754550299e-001 -1.7174033854297632e-001
      -8.3948313931887020e-001 3.8615699370678042e-001
      1.1385329998753502e-001 3.0976428871246690e-002
      -2.2538538599220562e-001 -1.4146613224514759e-001
      -2.3411652253324558e-001 4.1507047633551186e-001
      8.6538919783809209e+000 -1.3817044566567588e-001
      2.1888806924545859e-001 5.8538458790441977e-002
      -1.1326263472897256e-001 -2.4445866572264486e-002
      -1.0161881885897554e-001 -3.0913319647475307e-001
      6.5587846178951592e-001 -1.2316248371091168e-001
      7.3157621458216260e-001 -4.1883982665106373e-002
      -1.0531875354378253e+000 5.1216828834054018e-001
      5.3124974109258494e-001 1.8983877828926130e-001
      -8.7239563778942653e-002 -5.1285142150740759e-001
      -1.3414957037000846e-001 4.6438379765971877e-001
      6.7392696694456102e+000 -5.6578314352170445e-001
      2.5159257636757991e-002 1.3845982535919651e-001
      4.3727178265087541e-002 -1.1244318057019351e-001
      3.0284316667970790e-001 -3.8079163894083445e-001
      7.8881846436780967e-001 -2.9449105947938398e-001
      6.6191491534174673e-001 -4.7756553500098824e-002
      -1.0211069336898682e+000 3.2552606965290948e-001
      6.2948271222733310e-001 1.6139127186223523e-001
      -5.8458059917092971e-002 -9.4656760104905435e-001
      2.5217144734424324e-001 3.5274335820007480e-001
      1.7397577951239047e+000 -6.8069666584798461e-001
      -1.7028054029010965e-002 -2.0189133337241563e-001
      1.1254486529672780e-001 -4.2253479497765906e-001
      7.2100651528867699e-001 -3.5320369499167403e-001
      6.2541458353098378e-001 -5.8915039491607346e-001
      9.2855898098692657e-002 -2.9795051839604547e-001
      -4.5584194946667939e-001 7.8536327481880208e-001
      7.9999459557158120e-002 2.1385881476310695e-001
      4.7333438727841465e-001 -1.2409691632575277e+000
      3.2838846209042616e-001 4.0619858005492526e-001
      -1.0019227532356766e+001 -7.5529300020049761e-001
      -7.5113468867414185e-002 -2.1560360849027965e-001
      3.6111390876070126e-001 -1.7765486163527131e-001
      2.4860617665572166e-001 -3.8863466453160755e-001
      1.5534586591016419e-001 -4.4839451723628099e-001
      -4.9508028404241490e-002 -2.5544549604108396e-001
      3.2575059501535752e-001 1.0515175996660070e-001
      -1.7262284508428535e-001 -1.0808875791141535e-001
      4.7955617863823591e-001 -1.3597025691356011e+000
      4.5159416979562500e-001 1.6899349791017415e-001
      -1.7003394428623444e+001 -1.7943673078144831e-002
      6.2126023303867128e-001 -1.6835907176201445e-001
      4.2890119680521999e-001 2.7639337194370167e-001
      5.2028788410691262e-001 -1.5190934958696301e-001
      -7.5705161062222123e-002 -4.7901334723795924e-001
      1.6734975025222967e-001 -1.9830011224062995e-002
      6.0585696534117994e-001 -1.2788384910871614e-001
      -4.2930224726173805e-002 -4.7475199259306611e-001
      2.6139871555434779e-001 -8.6323156811992074e-001
      5.2881053364415476e-001 -1.1750397899077530e-001
      -1.9838539982598910e+001 3.7142283349965566e-001
      4.8833163016049580e-001 -1.1915519115167487e-001
      8.5947138987641425e-001 7.7772324399401782e-001
      -9.4915109864433633e-002 3.2198776770808152e-001
      -7.3582288495925352e-001 -1.7408782502111272e-001
      3.3371338147588242e-001 1.9695307554333688e-001
      6.6039830332720550e-001 -1.5070883466015247e-001
      1.3919498695178265e-001 -4.4746049407376903e-001
      9.0897469036281625e-002 -3.7233188759314628e-001
      3.3021622857694183e-001 -4.3745916370442789e-001
      -1.9135447476772434e+001 2.6225296175926766e-001
      2.9456220655869425e-001 6.4454432489737548e-002
      7.8156338361450250e-001 5.1252859425889374e-001
      -1.5315633849102392e-001 2.2255163200490241e-001
      -9.0302478158543920e-001 3.8308998175238218e-001
      4.4558255195013358e-001 2.8649920426092373e-001
      6.6794228319085891e-001 -6.5533210821567900e-001
      3.3436212258812725e-001 -6.2676871343630958e-001
      -1.3642622684202632e-001 1.8577361784833124e-001
      2.5888705290154712e-001 -5.5689331898468641e-001
      -1.3310888261435746e+001 8.4309786168050377e-002
      9.8460489243962127e-002 -2.7035444103192426e-002
      6.6363562427408673e-001 1.5543073251869971e-001
      -2.7044691884167660e-001 2.1677709541446175e-001
      -9.8349737993182429e-001 2.8780926699685871e-001
      2.2839831188980228e-001 5.5483239751891811e-001
      8.0053814810849744e-001 -6.1383462154814927e-001
      4.9455140917921359e-001 -5.1929859010792212e-001
      -5.9352280295565232e-002 9.5944039806352210e-001
      4.9832681289598912e-001 -3.4942991516418803e-001
      -1.0619309409249189e+001 -1.2301047470158782e-001
      -9.1525432792065833e-002 -2.4861840468642080e-001
      7.2238178571613243e-001 -1.2714354313730528e-001
      -9.1418253052900807e-003 4.6845634468975161e-001
      -9.7124318879552218e-001 -9.4569517728509314e-002
      -3.4861683742204630e-001 7.2562042780728342e-001
      7.7384016262995581e-001 -2.9843565509134701e-001
      6.0035111329803259e-001 -1.7100283811622724e-001
      -4.1989997334085788e-002 1.1011612150939214e+000
      2.9346190002567862e-001 -4.1809905789925955e-001
      -3.8006131328107368e-003 3.0299052205101525e-003
      -5.3199472544345162e-003 -3.6978674334977903e-003
      1.5793939237492831e-003 7.9468157047992895e-003
      5.9995131936530794e-003 -1.8916561149042231e-003
      -7.1273648610934714e-003 4.1608435693317233e-003
      3.2708241349640784e-003 -3.8118108285468315e-003
      4.6652324902125113e-003 4.0559344963060984e-003
      -4.1932801742083963e-004 -3.5728186638093718e-003
      4.0379756189241786e-004 -1.3629559886389011e-003
      1.8638756242609152e-003 2.4656904567884456e-003
      5.9285704407037942e-004 -5.8164671644856019e-003
      4.5063737172867610e-004 -4.5902702562476564e-003
      -5.8914184580693175e-003 5.9985934711959624e-003
      2.3877144014090882e-003 -4.7610553303531209e-003
      -4.7767374515359532e-003 -1.1374651054048097e-003
      -7.1136719478436328e-003 6.0164993297366996e-003
      1.2515305337275847e-003 -3.7687652347559554e-003
      5.0615398602862956e-003 2.8031763275557457e-003
      5.9355165553259467e-003 -3.6489784228218511e-003
      -1.7182060263310356e-003 4.6105882953699799e-003
      7.8760468231017118e+000 7.7290555277800088e-001
      4.1326019936424555e-002 -1.3383108628271924e-002
      -5.8877395624361795e-001 6.7181747605886868e-002
      -4.2725635464855277e-001 6.0698714146657493e-002
      3.4741833225398239e-001 -1.8416201346877939e-001
      -1.9390094668539556e-001 -2.6472452924493528e-001
      -5.5493732788729301e-002 3.1921202961958273e-001
      1.7680266846684858e-001 2.4769563411867407e-001
      -2.7256922514960946e-001 1.1385461899040736e+000
      -7.2073620094054200e-002 -4.9473311173690609e-002
      8.8578073083629043e+000 5.0443165266113710e-001
      3.2322436596494786e-001 -2.8637130832921465e-001
      -3.1136000074020037e-001 -3.8968387680877042e-001
      -3.6405644949334057e-002 -7.1811339154005699e-002
      5.7541703999777405e-001 -9.4683415199507973e-002
      -3.8443684753937840e-001 -2.7558462948967327e-001
      -1.3259213991163085e-001 7.0959076656179609e-001
      5.4702644209727251e-002 2.5329790731704238e-001
      -2.6616032069929421e-002 6.0694705041046326e-001
      -3.7646226110885506e-001 -2.3365160872555404e-001
      1.0896237073652967e+001 1.5591928542770317e-001
      2.5603822922726605e-001 -4.8436692225290934e-001
      -6.0426916198166321e-002 -5.9231080124912272e-001
      1.9674576356793219e-001 -2.9611983177050577e-001
      7.9389240174825315e-001 3.2665689722422224e-002
      -5.8471241705873012e-001 -3.9593542566706752e-001
      -3.3546214217585807e-001 7.4181418900049223e-001
      -7.3889688947038762e-002 1.6837994229814618e-001
      1.8141260599785491e-001 2.0662653598038733e-002
      -4.6690494603405713e-001 -3.2624031345937754e-001
      1.4699890430926205e+001 2.6941576963594376e-002
      3.6194301182356425e-001 -5.5487060343459182e-001
      -1.5186240453507216e-001 -9.3647742953432922e-001
      3.7320475958720234e-001 -4.0095985795018768e-001
      1.1464612230465556e+000 -1.6474101886740855e-001
      -7.2253587615908210e-001 -4.7678798273808359e-001
      -4.9803563203337475e-001 7.3798184061160588e-001
      -5.0274017805781768e-001 2.0962510779841234e-001
      3.1725487315569756e-001 -2.5175504246734198e-001
      -6.5314283203984402e-001 2.4410835784282180e-002
      1.7762600851267962e+001 -1.6361370739816453e-001
      5.1309726464546868e-001 -4.6037541216635836e-001
      -3.9840536314066433e-001 -6.9311599588111683e-001
      2.3196524939813309e-001 -6.4907838762933634e-001
      1.4901730907643542e+000 -6.9811540303420538e-001
      -6.2429976947711729e-001 -4.8736139716903332e-001
      -9.4826539632903595e-001 7.7410959541239188e-001
      -5.6082211475056953e-001 2.9248376420052824e-001
      4.1176173146027173e-001 -1.6360466667901524e-001
      -5.0634461948925114e-001 4.2599836587616768e-001
      1.6896302517466964e+001 -5.2038457699576390e-001
      3.3882972165605746e-001 -6.1020548884732462e-001
      -4.0017988269107962e-001 -4.6341623513472313e-001
      6.2573283752450770e-001 -7.8240828725381451e-001
      8.2001737866111390e-001 -7.0348439220280401e-001
      -3.8466046580174573e-001 -4.1949673397460369e-001
      -9.7199427106557401e-001 4.8567331706847044e-001
      -5.3843110784339765e-001 5.3397916402074852e-001
      1.3404066751067067e-001 -1.1395499103359864e-001
      -2.9982308055061491e-001 4.9342518069482699e-001
      1.0146373870763345e+001 -8.0966330725825264e-001
      -4.3475002395598143e-002 -3.1651790984334482e-001
      -2.5773360127937212e-002 -1.9036842852720245e-001
      6.7184471875539586e-001 -3.6419941798288241e-001
      3.4314783665231074e-001 -3.3661406066641986e-001
      -4.8907377983886773e-002 -1.0026223522281995e-001
      -4.5154491434750493e-001 -6.2067842693476878e-002
      -1.3742966472178142e-001 7.0514263013959022e-001
      7.2483851734265331e-002 -4.8952181387017624e-001
      -1.7239759638064639e-001 2.8781619631321920e-001
      -1.3393940403568766e-001 -9.2248067695001890e-001
      3.2907613927498143e-002 -1.1868544908010403e-002
      3.9999246557689289e-001 -6.9926144934966059e-002
      4.4462237415876765e-001 -4.5708928799531545e-001
      1.4715414705065682e-001 -4.2682925810462091e-001
      1.5121093243510406e-001 -2.1846771199858647e-001
      5.0459221898705116e-002 2.0967599740556353e-001
      -3.0782511094019605e-001 4.0283405654785442e-001
      4.6090218159153579e-001 -7.9045570237085616e-001
      -2.3486624662393599e-002 4.8261135392678361e-001
      -9.4587594184544663e+000 -9.9115519259091756e-001
      -1.6107936056796138e-001 1.8093382244419701e-001
      3.4488063717735812e-001 5.2545238130171756e-001
      -2.7973007468710079e-002 -1.4706165708984364e-001
      -4.9528534536136204e-001 -1.4255340664986828e-002
      3.5737972704069371e-001 -1.8712549148771443e-001
      5.8907058444556093e-001 -3.7031783762720560e-001
      -2.7056104571804480e-002 -3.2461104627861191e-002
      -2.6139320742727812e-001 -7.3204613207257452e-001
      6.3421913558848941e-001 2.4326722447069749e-001
      -1.7059805875510516e+001 -8.7498084846337765e-001
      -2.3957126735402801e-001 2.4077939494638179e-001
      2.2155948103883449e-001 8.8377004416977634e-001
      -4.7922682908540029e-004 2.8852918428173158e-001
      -6.7950865295023777e-001 4.2132177349427580e-001
      3.8643776343019981e-001 2.5286910575543520e-001
      8.4250453507542822e-001 -6.2656619457777973e-001
      2.9448762307269666e-001 -5.7809554274981578e-001
      -6.6369742402380738e-001 -5.5179050168339538e-001
      9.2910008383182152e-001 -2.3616671352380464e-001
      -2.4556110619683320e+001 -6.3407553719793885e-001
      -2.0340501984194306e-001 5.5238503553482077e-001
      7.0132088228385203e-001 8.3892505461588252e-001
      -1.5955940932125026e-001 2.6544132202899007e-001
      -5.7704506811860767e-001 6.9979137417704806e-001
      4.3342211394768426e-001 4.5589720831448782e-001
      2.2825624324104929e-001 -6.5121028955374072e-001
      6.0273863461806343e-001 -1.1036068072546104e+000
      -7.8446498684684873e-001 -7.6553365154930064e-001
      8.6625170516492511e-001 -5.9231322960159294e-001
      -3.0966289515663313e+001 -1.5897235303149584e-002
      -3.3625949113672626e-001 5.1990513035341612e-001
      5.6358095983609435e-001 8.3394661718891971e-001
      -4.5579009236517087e-001 5.0708769427675116e-001
      -6.0580796832509087e-001 7.4158369978017968e-001
      1.1072721344478929e+000 6.7746550721645438e-001
      1.4042328667382903e-001 -1.3193986034922991e+000
      1.2835442310563023e+000 -1.2394008076840772e+000
      -8.6336758242506795e-001 2.7693583102557421e-003
      9.6785312742377172e-001 -1.0290863119166411e+000
      -3.0107194090981697e+001 2.4505450329073192e-001
      -1.4860810122553761e-001 4.3469421943184905e-001
      5.6997007316938664e-001 5.2588757478359849e-001
      -5.2893128923418720e-001 5.2110945415809939e-001
      -6.7884417926569374e-001 7.0661481683679761e-001
      7.8852641050625993e-001 5.6067792270096850e-001
      3.8109555655907779e-001 -1.2945513159986755e+000
      1.2481365376668825e+000 -1.0100840803776496e+000
      -6.1985848137727340e-001 3.5828797283056779e-001
      9.1873518897321882e-001 -1.2229252472078216e+000
      -2.3488213289620401e+001 1.0305196112037641e-001
      4.2235589871307982e-001 2.3310553246047813e-001
      3.9816708469895418e-001 2.5645270860360388e-002
      -3.5634149063907727e-001 2.0755218586434340e-001
      -6.4181537528846277e-001 2.6006619752409732e-001
      4.2364553217941819e-001 5.6717215667606458e-001
      3.6481555845382230e-001 -1.1691937025381514e+000
      9.2798247852125726e-001 -9.0749784571689851e-001
      -3.8339840569669187e-001 3.4700452363643952e-001
      9.3955798135625268e-001 -1.3100778877695927e+000
      3.8180292544520156e-003 5.6623635435425852e-003
      -3.4983446620335413e-003 -4.6585199422744241e-003
      8.0495204248536550e-003 -1.7068587693115176e-003
      -7.5840365071760613e-003 8.1284038714100524e-004
      -5.6315208909827707e-004 4.7360305759040020e-003
      -5.4854598908945134e-003 -6.1795816539149447e-003
      -4.8874650569745749e-003 6.8600918023172634e-003
      3.5002365362176834e-004 -6.2785495691800421e-003
      -6.4745075554442852e-003 3.6730302807799942e-003
      -5.0771793740012521e-003 -4.3371544104252278e-003
      -5.8078148756850762e-003 3.0110468123529578e-003
      -7.0963438556561906e-003 -2.1672148045221592e-003
      -4.8732864207276985e-003 5.6103069533629171e-003
      5.6480373320490912e-003 8.8038839829437661e-004
      5.8233862112155293e-003 -6.5414339160230553e-003
      -3.9705987385703235e-003 -4.9073622444302722e-003
      -8.2500885965689896e-004 6.3351654917472395e-003
      -1.5905074085831217e-003 -2.8107193740657534e-003
      -2.9522354609541725e-003 -8.9829464084290771e-004
      -5.6999503612183136e-003 -1.0692575515545916e-003
      7.0292109849332132e+000 5.9798101058129138e-001
      -4.6089371295899018e-002 -1.8571346377255388e-001
      -1.5449581645864896e-001 2.5518381459814787e-001
      -4.1572206195229955e-001 -5.9859876128927891e-001
      6.9708152343523144e-001 -4.9522232906697861e-001
      -3.1668875671277030e-001 -4.1744933926053862e-001
      -1.8741417085782727e-001 1.8560719123561537e-001
      -3.1160572413306731e-001 7.8492018220575305e-002
      2.8326580677469576e-001 4.2389029827051078e-001
      1.0547958344030413e-001 1.1251192885534694e-001
      1.1252260287725807e+001 3.4139537427351208e-001
      5.5929618388022517e-001 -6.6072408707916286e-001
      -1.6357690770455588e-001 -5.2977373339053024e-001
      2.8178974729265943e-001 -7.4933013396292802e-001
      8.8858243227909528e-001 -1.5817131830064940e-001
      -6.1800164376239752e-001 -7.7486787670694868e-001
      -2.5885092110255914e-001 5.1189509361338037e-001
      -5.8134694907512996e-001 -2.5945275892887876e-001
      -9.0042342487610116e-002 -1.8928005129827077e-002
      2.0546612812556687e-002 -4.9179492764583402e-002
      1.5164487903656569e+001 1.0915096130091603e-001
      8.6147357162973393e-001 -8.8523063537058189e-001
      -4.3292160210872149e-001 -8.0657152577171765e-001
      5.6096869236929836e-001 -6.3421787181876477e-001
      1.1291965678294713e+000 2.7824883081219196e-002
      -1.0106100408721737e+000 -1.0185580219498576e+000
      -6.0404619938825488e-001 7.5218002075732204e-001
      -8.1543861084282732e-001 -1.9604013168426754e-001
      -1.3072437604163764e-001 -1.1673341138740967e-001
      3.6750976473645294e-002 -6.8868605369870425e-002
      1.8855213370041312e+001 -1.3132754906514843e-001
      1.1533165838341430e+000 -7.2440331587288209e-001
      -9.0893502802714687e-001 -1.0042562931779810e+000
      5.4282325717718150e-001 -5.2056102348507782e-001
      1.2083036057732222e+000 -1.9731803342039436e-001
      -1.2618853568107562e+000 -8.0727807669995011e-001
      -7.2490575803597468e-001 8.1697740771327998e-001
      -9.1633209138256977e-001 4.5277838074535091e-003
      3.1342772257849379e-002 2.9727881279223084e-001
      -2.2469521476124305e-001 1.4293335317957939e-001
      2.0129283466425921e+001 -4.0563457557721505e-001
      4.7614699077769879e-001 -3.5772373797736046e-001
      -9.6385387081560425e-001 -4.8459403299669457e-001
      1.2292671508862224e-001 -3.7989019355078102e-001
      6.9453894512171854e-001 -3.2474751560702231e-001
      -7.3660134103298225e-001 -3.0481650069195027e-001
      -5.5193710322368794e-001 2.3546873929631082e-001
      2.6734021557327053e-002 5.0403689833029697e-001
      1.1081089931865296e-001 1.0792692855670449e+000
      -4.3539625050259995e-001 -1.4118426351113494e-001
      1.7362064802304491e+001 -3.9307147579008977e-001
      -3.8908650245399817e-001 4.8184862568298747e-001
      -9.4511688040943920e-001 3.1839811622329589e-001
      -1.5863646237066376e-001 -1.5172131516258294e-001
      1.0470865376604509e-001 -2.8788896865902019e-001
      -2.8162681682218288e-001 -2.5294659243917605e-002
      1.3181255637829373e-001 -2.9026270620674821e-001
      4.4600898221159918e-001 8.4169627959958337e-001
      1.0733712288264109e-001 5.2779649804102746e-001
      -4.3450200650855214e-001 -1.7671824870594308e-001
      9.3527871639787907e+000 -3.0030353882149630e-001
      -5.4349877406027813e-001 5.1730466685351895e-001
      -7.4616343593855394e-001 3.4940501821193776e-001
      -4.6873755852878513e-001 -8.0264282434354059e-002
      -1.3219339788051471e-001 -3.0064947022478061e-001
      -5.0879185063793908e-004 -3.3246918708114231e-001
      3.8723053935655555e-001 3.0390533093315930e-001
      1.1142517484874420e-001 8.2226397453414601e-001
      7.7000863502480665e-001 9.7498454553056627e-002
      -3.4549082179331553e-001 2.4933623593487111e-001
      2.1747297191455695e+000 -3.7923431730712542e-001
      -1.9322208901173019e-001 5.5428460828278847e-001
      -2.2443949492555340e-001 2.9636829983819968e-001
      -1.9520376482557228e-001 6.9725313894627189e-002
      -2.5847359312070434e-001 -3.2760564672358172e-001
      1.1990139555202993e-001 -4.4540755859079878e-001
      -7.2302873230193937e-002 1.7977219411985776e-001
      -6.4439261045126717e-001 7.4835898809474977e-001
      7.2299623560427839e-001 -2.8158984252802899e-001
      -2.1609709808874236e-001 3.0093310837326614e-001
      -2.8913286887305665e+000 -6.1852814764528097e-001
      -3.1641847388677469e-001 4.1706957362298014e-001
      5.5533883493338287e-001 4.2364956529909020e-001
      -1.9804559260892413e-001 -5.7244903347644961e-002
      -4.0191139005464993e-001 -3.6611875387863024e-001
      2.3947871147877051e-001 -3.2687122268969344e-003
      -1.3638147269275017e-001 3.0246622197268491e-002
      -9.4742791173009500e-001 1.5080543892852721e-001
      3.7529526538844454e-001 -5.9325712651508844e-001
      -1.8182337812552085e-001 7.9355592144543541e-001
      -6.7267699207804412e+000 -3.5283350984852629e-001
      -4.0859488721907411e-001 5.5431980652720048e-001
      9.6839694770647244e-001 6.6725181430899183e-001
      -4.1241714986967754e-001 -1.1351146653841512e-001
      -6.4851934712652026e-001 9.0383203786813263e-002
      4.1102756923224520e-001 5.2526052855498073e-001
      4.0914550966974640e-002 3.4557257914462583e-002
      -4.4404665719306929e-001 -3.5964831351006837e-001
      -3.3377314987475967e-002 -6.6942071215007570e-001
      1.8815004876976404e-001 8.4326221592628570e-001
      -1.5137802139355655e+001 -3.8463515090484890e-001
      -2.2859115214145034e-001 7.2158753395399278e-001
      6.3324274792753976e-001 4.6598793159699331e-001
      -5.2799909230245101e-001 9.1501254090419568e-003
      -4.3675720862707368e-001 2.5000168346562218e-001
      4.9746992557401254e-001 7.2651236437617950e-001
      -1.5385934671981732e-001 -6.5978371809109926e-002
      1.6312562774041764e-001 -9.9396444933485251e-001
      -3.2703077069183900e-001 -8.1654329598834752e-001
      7.5398306993026509e-001 1.6637821605785247e-001
      -2.3652130280079632e+001 -1.1072374695571474e-001
      -2.5716276142376985e-002 5.3789371260259078e-001
      3.4322849410932665e-001 6.8598524846829745e-001
      -6.3452925408439076e-001 3.3118505664597814e-002
      -4.9414395525263038e-001 6.7529133416785603e-001
      8.2413799178627356e-001 5.7787118572242080e-001
      2.6596610450203773e-002 -3.5113688403762894e-001
      7.0818501271519019e-001 -1.3784975062973319e+000
      -8.7216746648903321e-001 -1.0198862850818212e-001
      9.9864187154443507e-001 -2.9020262259416141e-001
      -2.7797259423735959e+001 -2.1339810361806605e-001
      1.4188500684503907e-001 2.8061198066166165e-001
      3.7392814943283742e-001 7.1111520076539636e-001
      -6.0794785616207170e-001 3.2902121665299616e-001
      -5.1395566295145168e-001 4.5142654695836060e-001
      5.8145728492485205e-001 5.7126082332586881e-001
      -3.9231467134461184e-004 -7.7942631948572194e-001
      1.0800044910055728e+000 -1.0798457591634090e+000
      -8.7730266311565419e-001 1.9507180015981390e-001
      1.1602920645171200e+000 -8.7852037755602375e-001
      -2.6423115414617552e+001 -3.7070015077283530e-001
      1.7143612337769590e-001 3.3714831714285798e-001
      4.9912853496342380e-001 2.1727931351903154e-001
      -5.4824473439051191e-001 3.9266565436919976e-001
      -2.1953252413871105e-001 -1.3356441423922980e-001
      5.0787652861032795e-001 6.3284723719548730e-001
      -2.5037057478230407e-001 -5.9365555152834604e-001
      1.1439874186364247e+000 -6.5009826144808869e-001
      -3.6674412565142345e-001 6.0852880970775812e-002
      1.1581882909432957e+000 -1.1207344670096993e+000
      -1.0982383717149033e-003 -7.1728058227477519e-003
      5.1653689679709144e-003 -7.3541430962093901e-004
      -1.6745904692611363e-003 -2.2742150655723811e-004
      -5.0984256590885426e-003 7.1473616685050947e-003
      -7.4944912790374093e-003 -3.8964367659415867e-003
      -6.0521984588302958e-003 -4.5120052282634051e-003
      -6.1861340959411121e-003 7.2374229019152529e-003
      7.5263519159564224e-003 -3.4148749702710454e-003
      -9.9785423256076302e-004 7.8392010422322848e-004
      -4.7488962794911800e-003 1.8036772592744752e-003
      -6.0918459915574388e-003 5.4691972697413441e-003
      -2.6687020076166688e-003 -3.9060380978892494e-003
      1.2976684271583082e-003 -9.3263124592085384e-004
      5.2415096268087066e-003 -9.8558894937404132e-004
      3.0163211045378191e-003 2.6276334785898538e-003
      4.5882312979025498e-003 3.5954005095833711e-003
      -3.7086661387867848e-003 -5.3536140630267952e-003
      6.5644239862191057e-004 -1.3059010986041213e-003
      1.9440373557191382e-004 1.3243200897163400e-003
      -5.8756362578760574e-003 -7.6437814210678651e-003
      8.1264998233166761e+000 5.9099780636794630e-001
      3.1235665839396626e-001 -7.4133509079984494e-001
      -2.0784851956368292e-001 -3.2899995654220493e-001
      1.2795197700411137e-001 -7.5195666835187092e-001
      8.7605120328544195e-001 -1.7069762023023008e-001
      -3.5495253452184733e-001 -1.0675229937862321e+000
      -7.7111777263725279e-001 1.2552143286007467e-001
      -5.8498902939808939e-001 -8.0484586716089129e-002
      2.4138017950478127e-001 -6.3502489658215155e-001
      4.5671201189485899e-001 -9.7343070835375564e-003
      7.5993371051866063e+000 8.5279653757525276e-001
      9.4772393430490498e-001 -8.6365648416624463e-001
      -2.8017976194559213e-001 -5.7332416482164339e-001
      6.7143865712343864e-001 -6.5219636204532083e-001
      7.3791443890322916e-001 2.1377417649929110e-002
      -8.6712282506525074e-001 -1.2486834006632657e+000
      -5.1437883791249650e-001 3.3263936924283766e-001
      -5.2779159434584622e-001 -3.1535627085592055e-001
      3.7094178299279891e-002 -1.4064903492296091e-001
      1.8402959601298657e-001 1.3365605813552753e-001
      8.7315494790046078e+000 5.1827296568112780e-001
      1.3176188019143733e+000 -1.3129306260304436e+000
      -4.4844494488500025e-001 -7.3182045136679286e-001
      1.1363385493676865e+000 -4.7007179872602178e-001
      7.2076525678150472e-001 -1.2324432864720235e-001
      -1.0842162603096346e+000 -1.0747315784548421e+000
      -5.7853909747596244e-001 8.7626359877696891e-001
      -6.5074524751659202e-001 -3.7496812151036041e-001
      5.3734242452573251e-002 5.5781851351079736e-001
      1.1095300438693915e-002 5.1347923714837551e-001
      1.2775328441138271e+001 -6.9849694792192704e-002
      1.3970514379225831e+000 -1.2511660556474438e+000
      -8.1524032916054245e-001 -4.8794072630733082e-001
      1.1553324350704768e+000 -1.4297981131722468e-001
      5.7362986957799256e-001 -4.9056691666607982e-001
      -8.2729070098768320e-001 -8.0781304979026147e-001
      -5.9506708044420820e-001 8.5223526403578354e-001
      -8.9075593830922517e-001 -2.4483872627857957e-002
      2.0798934071691402e-001 8.7145112020182369e-001
      4.8373959582720498e-002 7.9508741433736074e-001
      1.1897215628922886e+001 -4.2400967819852803e-001
      5.6279099507495733e-001 -2.1131721211674953e-001
      -1.1765500495160759e+000 1.5254148988178593e-002
      1.7214574538760113e-001 -2.7822540504933324e-002
      3.0083206681990959e-001 -2.5835780923821439e-001
      -2.3926046884097776e-001 -3.2359606772781130e-001
      -7.8771567935148279e-002 2.4324254375397511e-001
      -4.9283247036598331e-002 7.5208660125831550e-002
      2.2287620030041214e-001 1.5317184168360229e+000
      -2.3389388842835696e-001 3.0150806747878689e-001
      7.2928939148729688e+000 -5.0716841588981376e-001
      -3.9643046576510044e-001 9.1303102653649659e-001
      -6.6559779583937606e-001 5.5284156213429647e-001
      -2.8384481930429698e-002 -2.2848804361271774e-001
      -1.6213526974621284e-001 -2.2985332027619668e-002
      4.6831800965132613e-002 8.5111055196077909e-002
      7.2119588471349350e-001 -4.1964011605982843e-001
      3.5561102979733150e-001 1.6928167920712192e-001
      4.8982502088053204e-001 1.1615444713198799e+000
      -5.2103128585957648e-001 1.0692512635865833e-002
      3.1812926400793171e+000 -3.2596963200490381e-001
      -6.5561545196736137e-001 1.2652850344949884e+000
      -3.0831557554693034e-001 7.7250726016333304e-001
      -5.3987743970261938e-002 1.4578451362445066e-001
      -5.3913348098631864e-001 -1.9705233677758757e-001
      4.1965944650371872e-001 1.6125403501496963e-001
      6.0974744442041329e-001 -3.8292182376204287e-001
      4.0178846447504046e-001 3.7160582400544878e-001
      3.9682484619539210e-001 3.1398127497596745e-001
      -2.4741072034365069e-001 -4.5336330744131847e-001
      3.6671203034682791e+000 -2.9665140127982109e-001
      -3.6458957894470234e-001 1.0152034337878038e+000
      8.2937331601475595e-002 4.0868123139772622e-001
      1.5323050437793140e-001 4.6590983123399343e-001
      -9.7570660818037336e-002 -3.5080902789348106e-001
      3.7400013677909277e-001 4.5970469257285596e-002
      4.0933616679685710e-002 -1.9426225526977961e-001
      -9.3657719023795960e-001 6.9411063963916997e-001
      3.8694318997071742e-001 -3.8669748552207478e-001
      -2.1967082005810856e-001 1.4580341977228220e-001
      5.9407009253560910e+000 -2.4782591209217991e-001
      -7.8582501555760242e-001 4.2041630478798686e-001
      2.3901893073954630e-001 5.4684381914853475e-001
      -2.9296847358291650e-001 7.4906408500104527e-001
      1.3478077884927985e-002 -2.2391875983040629e-001
      7.6751842891544164e-001 4.0795013602388536e-001
      2.1560542371308983e-001 -1.4865248453348415e-001
      -5.6078877731883403e-001 1.0936709918787377e+000
      1.2659664114573801e-001 -6.9859502683184205e-001
      -2.5447400375636503e-001 4.0304859037226504e-001
      5.5496103433096851e+000 -3.2169187841535174e-001
      -9.0172267252458538e-001 -1.5421241359243421e-001
      -7.2425249437059330e-003 7.0112046899339175e-001
      -8.7392668993829337e-001 3.2289097956698032e-001
      -4.8763351259901999e-001 -2.1150638844584271e-001
      9.3485780236990956e-001 9.3271233670796050e-001
      4.2097306071831975e-001 -2.3993120339097323e-002
      2.9187618176444097e-001 9.5793540883891559e-001
      -1.7130516316791203e-001 -1.3171095601900518e+000
      1.9342289290503198e-001 2.4702027354515247e-003
      1.8316807914082849e+000 -1.0586654019509343e-002
      -5.6828472171910704e-001 1.6171096042283342e-001
      5.1885675556556508e-002 2.8762551579883222e-001
      -6.3023054906558351e-001 -7.2221239706142623e-002
      -6.0800281769966036e-001 1.6674226302047754e-001
      7.4859415182639866e-001 5.9135049074055168e-001
      3.9077196508194534e-001 -5.6313195716400900e-002
      3.9017666375515669e-001 2.0131194654381809e-001
      -1.4337198049202274e-001 -1.0302861920178177e+000
      2.5488471126664985e-001 -1.4694585592239776e-001
      -1.3665960005194522e+000 2.0746296508862022e-001
      1.7872744791697229e-001 -3.0390893768336799e-002
      -3.7485787419353894e-001 1.4758975690313450e-001
      1.3081893371252637e-001 -3.5849348266690800e-001
      -3.7619286812903335e-001 -6.1067530584013999e-002
      -1.2701373460682835e-001 3.8582645672216975e-002
      4.9277705467452115e-001 1.3466807990930019e-001
      -3.5712088971638184e-001 -1.9938289481659063e-001
      4.3024536184225326e-001 -5.0541015323698257e-001
      4.1537915662078978e-001 -5.4479684344848532e-002
      -1.0625630057282459e+001 1.8619963104601067e-001
      6.9212546808217867e-001 -4.8366276897461308e-001
      -4.2831103915067792e-001 4.6225490160853103e-002
      5.6119587150661021e-001 -2.2760699438466978e-001
      8.6713766992508004e-002 -2.3636389864424093e-001
      -4.8781258685242546e-001 -1.3809855301234722e-001
      1.0293022639509572e-001 1.7104609633212212e-001
      -5.1976481245372641e-001 -1.3295146276370290e-001
      7.4316078565074761e-001 -7.4458715021589281e-002
      1.6844914639817596e-001 -1.5890666427141714e-001
      -1.4209093044193457e+001 -1.0000681560404787e-001
      6.1087065218249004e-001 -4.8714856704723042e-001
      -3.0321132872239537e-001 2.3298794973397033e-001
      4.2957671754535048e-001 -2.7173685509778417e-002
      3.2139257233703988e-001 -2.3722725786375165e-001
      -5.0991031895584915e-001 2.2289722335327972e-001
      -4.3517389875177559e-002 1.2223008040945860e-001
      -3.1324113238432011e-001 2.6610308008450871e-002
      6.7078575082062830e-001 3.8102790198273812e-001
      4.9762210946315372e-001 -3.2720115328862243e-001
      7.3904652356734041e-003 6.1497267505509837e-003
      -7.0085854755853319e-003 5.5305948890015163e-003
      -7.4210912096818234e-003 -5.4754539869954887e-003
      -1.1956611380166729e-003 -6.0408514569463699e-004
      -9.5129667094751111e-004 -4.0623054608419570e-003
      3.9844746538768442e-003 -5.5652917267669383e-003
      7.8487574771699282e-003 -5.3797813693596498e-003
      -5.8678741127950976e-004 3.5074417892921341e-004
      -4.6756191448731887e-003 9.2601129176161305e-004
      -2.5935210544637556e-005 4.7099365876415644e-003
      -2.5922891469955787e-003 5.7868039009461017e-003
      -2.2187565028907530e-003 -4.3980768266300707e-003
      -7.6104037446096404e-003 -7.2128158519449807e-003
      -4.7692600188754446e-003 2.3447839381743924e-003
      -5.2574610784313211e-003 -4.9007991126228728e-003
      3.0236266484880217e-003 -3.2465095198891498e-003
      1.7150482873623234e-003 2.1116339396482788e-003
      -3.7933330844722069e-003 3.3432544637331959e-003
      -6.1981998699785846e-003 4.8460125346060107e-003
      7.5988065127004937e-003 -3.4214537168743473e-003
      -6.9879749644220346e-001 1.2466331142201224e+000
      4.7705916747310295e-001 -4.4669574972268783e-001
      6.5843899740953948e-002 -6.6914623114303740e-001
      3.2600930531554584e-001 -5.3328856177838224e-001
      8.0112606146545828e-001 8.7668038683500663e-002
      -2.2980085345640827e-001 -6.0485764705858502e-001
      -7.7844436441436002e-002 1.2256546233359830e-001
      -4.0349953153577794e-001 -2.5266615964627398e-001
      6.6124022909577129e-001 -2.1683662924698807e-001
      3.1951585186849651e-001 -1.8430186008048222e-001
      9.2989673247809379e-001 1.1490846302887483e+000
      9.4748737248722958e-001 -1.0579526228477294e+000
      -6.9656351759468035e-002 -4.9458363345377360e-001
      8.2523646949910945e-001 -4.8197050311280021e-001
      6.6813457438336732e-001 2.4907796626564727e-002
      -7.2138052928967922e-001 -5.5905791054990162e-001
      8.2196720071944923e-002 2.3801544528238719e-001
      -4.9608988806048132e-001 -2.9081549385353322e-001
      3.7965558992383180e-001 -4.4845828742072302e-001
      4.9050407249545547e-001 1.2868855715086133e-001
      1.2499397370581871e+000 5.4307960456091453e-001
      1.2358305610526052e+000 -1.3440151731193646e+000
      -1.4610539644250428e-001 -3.7647177896297013e-001
      1.0670274806556452e+000 -4.2718960799926764e-001
      5.6289650529640545e-001 -2.2727339278383157e-001
      -8.8952856531108726e-001 -6.2507123410392706e-001
      1.6386054704039857e-001 8.2678844747648839e-001
      -4.9802483524530849e-001 -2.7777966037891771e-001
      4.2082064582948386e-002 -9.5666579087555659e-002
      3.6310571207874798e-001 5.9808545984978778e-001
      8.9954323738901876e-001 6.1601093484902225e-002
      1.2361405977524167e+000 -9.9072114316598425e-001
      -5.0160320004960146e-001 -1.0405020388909238e-001
      7.9118312346800268e-001 -1.3502031274125886e-001
      1.9920689668474598e-001 -3.3398032115107262e-001
      -5.2818376794880484e-001 -4.5869870939415197e-001
      1.9122178034904458e-001 7.6942085877076938e-001
      -4.3609012425001498e-001 -8.9136344721075914e-002
      -1.4790746199344468e-001 6.3903675618555766e-001
      1.6276724376394774e-001 7.4343533970653963e-001
      1.3254636255911532e+000 -1.7859919846987526e-001
      8.5492514798602315e-001 -3.6571918729819486e-001
      -1.1294220570531812e+000 1.9729734068275409e-001
      6.3460920102470142e-001 -5.5645809984733889e-002
      -6.7648003241252965e-003 -3.1505337287135726e-001
      -9.1963594391855433e-002 3.1338275284543832e-001
      1.8558388612662283e-001 4.5717530386926103e-001
      -1.3193366020942435e-001 -3.0363810513972483e-001
      -1.2053824845522108e-001 7.4818496185461958e-001
      1.7254404628794506e-001 1.7414911460135088e-001
      2.2664255023413280e+000 -3.5541493694386606e-001
      -1.1717838386343819e-001 2.3407258403672943e-001
      -8.1805928554976981e-001 2.0496359918768456e-001
      1.6180608629895360e-001 -1.7612316498104075e-002
      -1.7180901419685912e-001 -9.6666019699285261e-002
      3.7040658340085242e-001 5.0226435156042093e-001
      6.5458139695303441e-001 2.1548203569579077e-001
      -5.6281564009533838e-002 -3.9833030190855445e-001
      1.6117769891505393e-001 5.2944064075762887e-001
      7.6919105654106812e-002 -1.0168549149834714e-001
      4.9205558537530294e+000 -3.5779209192374134e-001
      -6.5007402644301449e-001 4.4395124775058120e-001
      -6.7364176917620477e-001 1.0503726672131249e-001
      -9.5184757264161327e-002 -1.1217143082186664e-002
      -4.0095997997535826e-002 2.5167276935175770e-001
      4.0109741582407760e-001 2.2673433438384921e-001
      7.6194501911572587e-001 -5.8013991487469593e-002
      -1.3112851670014519e-001 1.7593805618841382e-001
      3.7900667008816552e-001 -1.9672449247046541e-002
      1.1222155096987183e-002 4.5638903299974672e-002
      4.1268405506028936e+000 -3.4811732568328435e-001
      -8.9989328246921418e-001 3.7698580928402631e-001
      -4.7749032559414922e-001 4.7548928707561994e-001
      -3.0349170965002908e-001 3.2390743679232920e-001
      -3.1630111361138028e-003 -1.0792080218282075e-001
      3.3204123307407996e-001 1.0256559573392224e-001
      4.4902125577305652e-001 1.6804280874392025e-001
      -2.1876746631913038e-001 3.1194859093887523e-001
      2.1079881717014248e-001 -7.3756188574770243e-001
      -1.9263445727144524e-001 2.9785146996147421e-001
      3.6098753560320658e+000 8.5562701673545100e-002
      -8.7192527776983553e-001 2.7596686726805197e-001
      -3.3403227107970573e-001 5.6062625133031685e-001
      -7.4626058781144577e-001 4.3604769694241036e-001
      -1.3910051847319510e-001 -4.5205426010006078e-001
      4.5468792647487644e-001 6.0252780863224908e-001
      5.8423745030727103e-001 4.4399173919475293e-001
      -1.2476295942680196e-001 4.2937745877724054e-001
      -2.0227165217394656e-002 -7.9056916033412861e-001
      -2.0543409361163517e-001 4.2240528237401609e-001
      3.9587420964969899e+000 1.2550609900098447e-001
      -6.1279164150903975e-001 2.0412802417688513e-002
      -3.8453807658132155e-001 7.4564423630998322e-001
      -7.2412440786200150e-001 3.3022824342724466e-001
      -1.5847746718176459e-001 -4.3367126750464047e-001
      3.4147435096799394e-001 5.8157982904732397e-001
      9.2780580736969842e-001 4.9537363869482676e-001
      -1.5678907958187133e-001 8.1269666664710383e-001
      -3.2988149262722555e-001 -5.5317165900491394e-001
      -2.1262335144669173e-001 4.6577443874482299e-001
      3.2408488881492287e-001 -1.8729186440598105e-002
      5.2527157512123634e-001 -4.0467503598334553e-001
      -4.5051878539030238e-001 3.7035999230666217e-001
      8.8370859593845130e-001 1.0147712538318364e-002
      -1.9394928085595056e-001 -2.8534130254722373e-001
      -3.5357409886652852e-001 -9.7701352985432477e-002
      2.8890106254532810e-001 4.8278942404532899e-001
      -1.1671042279845913e+000 6.5669502035485727e-001
      5.6775018960073524e-002 -8.1043232418639044e-001
      8.3328676512789759e-002 1.2054453398522229e-001
      -2.9773571228839518e-001 -4.8467043200261699e-003
      4.7208295375498571e-001 -5.8020037992167617e-001
      -8.9838057017661543e-001 2.1740409740801231e-001
      1.1486109609582684e+000 -3.8286365671884987e-001
      -1.0587479181453022e-001 -4.9638958116504761e-001
      -4.0170411869611894e-001 -6.3854162895934974e-001
      1.0406336372840196e-001 2.0617096436579063e-001
      -1.1612320886392831e+000 -8.7494533851950010e-002
      6.7795163571180295e-001 -5.0600395046857616e-001
      4.2265454195336977e-001 8.5680635748754883e-002
      -2.1370632159328586e+000 2.2947883987021045e-001
      4.9181070740214528e-001 -4.6453961751332712e-001
      -9.2811148334353677e-001 8.5104646115402111e-002
      1.1048211409639375e+000 -3.6288513830285540e-001
      1.4154408849440123e-001 -6.1017613662121062e-001
      -2.6984621121794217e-001 -9.9135965131029624e-002
      6.7147501877346888e-002 2.0233116511319910e-001
      -9.1857821838537879e-001 -2.9389029336551747e-001
      8.2714184210428288e-001 -6.3076044921202262e-003
      2.1444780955167891e-001 4.4096398408051285e-001
      -3.9149121727047911e+000 5.5957333540041132e-001
      2.2674263581664778e-001 -1.0574628612336888e-001
      -7.5652539020093712e-001 1.8199458363506407e-001
      7.7337608886213471e-001 -1.1921052935106542e-002
      3.0861636556468541e-001 -2.7268008510022312e-001
      -2.6004674287526225e-001 4.6253753250914015e-001
      -7.0987490842660622e-002 3.1802551905533821e-001
      -7.1440061457537041e-001 -4.5759784511888663e-001
      5.1099658599755615e-001 6.4226341404863685e-001
      3.0688818305828092e-001 7.0462156655724206e-001
      -6.5438858358826697e-003 5.0899237418444111e-003
      7.7043213744242018e-003 -2.7625095044877097e-003
      -4.7117638252669146e-003 -6.9751780938493236e-003
      -6.9541391301368152e-003 -3.7010365558618492e-003
      3.8269916278822016e-003 -3.0996858932753227e-003
      1.5201749312716555e-003 1.8269032245655094e-003
      -3.4028766893301211e-004 -6.5970688073706549e-003
      8.9094193224630795e-004 -4.8736334489390158e-003
      -3.4213509213761603e-004 4.2066233451389509e-003
      9.9581130874684806e-004 3.1678781233929884e-003
      9.8692513123818291e-004 -7.7492991985874888e-003
      -6.7738223239945539e-004 3.6844234590965664e-003
      -1.1548469245649640e-003 5.5759436525678070e-003
      2.1588427796930820e-003 -1.4333345948544061e-003
      -1.8304696513683739e-003 3.8015037407436691e-004
      5.2833541315985008e-003 7.4956927874518207e-003
      2.9160017421773041e-003 1.4124516025281056e-003
      -6.9089914191485967e-003 1.3833775465105208e-004
      2.6444687514576340e-003 7.4824831906173360e-003
      -5.3605881237885648e-003 -4.0768340902666029e-003
      -8.9708994889120142e+000 1.3303436062263645e+000
      2.4104712361635608e-001 2.1177873126754970e-001
      3.4299137910960348e-001 -1.5476120485717434e-001
      5.4765982163291649e-002 4.7816430916036534e-001
      8.2395262139015768e-002 1.1724866539944213e-002
      -1.4994626237489914e-001 3.2844356885333281e-001
      2.8321207225012218e-001 -1.8931007219488291e-001
      -2.0723727976860609e-001 -2.4721383114572620e-001
      4.6293195969015127e-001 -5.9890277609819120e-001
      7.5662407655795594e-001 -5.4089405422977221e-001
      -9.8315811247459699e+000 8.4817328726446550e-001
      4.5524452249134373e-001 -2.1577295979137898e-001
      2.5229467475574874e-001 -2.1776512581779475e-001
      3.7311926691072478e-001 2.0371204125127904e-001
      5.8320109944853826e-001 -1.7667042385687362e-001
      -3.2779985870711098e-001 2.2382852525286101e-001
      2.8302546234254139e-001 3.9919430733232808e-001
      -1.0894569831621691e-001 -1.5895418506311440e-001
      7.1113156243290765e-001 -6.5467412371519762e-001
      5.7685701438368198e-001 7.6371410461558145e-003
      -1.2541714348762707e+001 3.2262095589500522e-001
      3.2146131497571218e-001 -4.4808235977728794e-001
      3.5324937947236706e-001 2.3188766889116037e-002
      5.9849599954477961e-001 -1.3820810077296511e-001
      4.0288336718820011e-001 -7.7355425123028190e-002
      -2.4410360656784089e-001 -1.3384211513147367e-002
      2.5311378817160518e-001 4.0910422499140703e-001
      1.2278112161756580e-001 -3.8882788681156749e-001
      7.9167618312325910e-002 -1.3224810919619809e-001
      4.7459184702491669e-001 2.7922189403560504e-001
      -1.0872359305512809e+001 7.4685472244125334e-002
      2.2452204602553444e-001 -2.6134545548520161e-001
      1.9384746216269610e-001 2.0308255146521126e-001
      1.5121092230802247e-001 -1.3669112182401935e-001
      -1.9306897512510035e-001 -3.6182628816868193e-002
      5.4326381138810734e-002 8.0333409157291036e-003
      4.3159781959111782e-001 6.5319993876944468e-002
      5.6603863909857965e-001 -4.1700194973409127e-001
      -4.3167048189135326e-001 3.4976815945444806e-001
      5.5998317731307423e-001 1.5198397610299302e-001
      -7.1856046082665621e+000 -1.3955035149593500e-001
      2.7881261168741389e-001 -4.2295475461840794e-002
      -4.9183330180422291e-001 8.2475836867974450e-001
      2.1183485203724478e-001 -3.2479203260700043e-002
      -5.0540611656474699e-001 5.4382924617770792e-002
      5.9921203391806233e-001 3.7288444220450323e-001
      1.5376839278870608e-001 1.4252756533586236e-001
      2.5203520796124090e-001 -5.5242967368443285e-001
      -5.7776241868412304e-001 3.2751391418387449e-001
      5.1960286084357821e-001 1.9433481830779192e-001
      -4.9462916953527367e+000 -9.6057878148086584e-002
      4.1571414785141791e-001 -2.5900076282671031e-001
      -5.9809289753845685e-001 8.7914131719002142e-001
      -6.4247963125026883e-002 -2.6791564462718496e-002
      -4.6081364503537425e-001 4.1639897696058532e-002
      7.1484802856160023e-001 3.9712060184371467e-001
      4.3383389070626088e-001 -6.2224765269202488e-002
      1.0999160690933385e-001 -4.2872957774882314e-001
      -1.7615110281549265e-001 1.3787730047448338e-001
      4.8755353226394432e-001 -7.2241157928064723e-002
      2.7865622954144333e+000 -4.1462913058548995e-001
      -1.0728084682335490e-001 -2.7299438616202304e-001
      -6.2357300378483460e-001 5.0707777468734361e-001
      -3.6387583768576681e-003 6.8027591777634039e-002
      -3.8897721524566831e-001 6.0706914275422894e-002
      2.3463578908549113e-001 6.5835371121132844e-002
      1.9411241724405953e-001 -4.1876920809858031e-001
      -3.1964419443423431e-001 -4.5086024198212275e-002
      1.6948332726498391e-001 1.6770150707922205e-001
      -1.7765219767675189e-001 -2.3690107311913142e-001
      7.3595655846613255e+000 -2.7764383918947877e-001
      -5.5142230950483540e-001 -2.3160547746233232e-001
      -5.7522005324191550e-001 4.9953545957296358e-001
      -5.5057287476622474e-002 1.9479064216230499e-001
      -6.7633891259342785e-002 -2.3232314260549658e-001
      -4.6015519891562617e-001 -4.5917476309832783e-001
      9.9773485750652799e-002 -1.5288749889680866e-002
      -5.5502834088828013e-001 -2.5628970700444359e-001
      3.0679376772593436e-001 3.3572076204223350e-001
      -3.1891845534346214e-001 3.6711703893691927e-001
      9.9497533954762449e+000 7.5898581556289327e-002
      -3.8312551979532899e-001 2.3656530159816211e-001
      -6.6362160676332627e-001 5.1289979914843908e-001
      -9.5573573827224267e-001 -7.0356762464731642e-003
      1.0192375183178022e-001 -3.0702947952104376e-001
      -1.6104701039802022e-002 -6.3757724264837695e-002
      3.7040702119597546e-001 5.1729946823459028e-001
      -6.8638567705181008e-002 -3.7612369029459619e-001
      1.8471123355145486e-001 2.9793113028206158e-001
      -4.5266440402933183e-001 6.8998322318704697e-001
      7.3015918024118802e+000 -2.4388767666580932e-001
      -2.5082953054536888e-001 3.5694504063979932e-001
      -6.8961604782756758e-001 7.9056359393891162e-001
      -9.9957871868502313e-001 -8.2628054291266059e-002
      1.1621551920956083e-001 -6.4518291499892588e-001
      3.8849466124324533e-001 3.2863952428680267e-002
      2.5314787375490533e-001 8.1829570544410951e-002
      8.4019609688108732e-002 -5.4709411533621723e-002
      2.2955305642711271e-001 -1.4110191438669464e-001
      -1.4521526793727221e-001 5.7936561822290444e-001
      2.4829758632087620e+000 -4.4786592557346172e-001
      1.4999588882198331e-001 4.0265025124001264e-001
      -4.9360885212239680e-001 5.1353525666446398e-001
      1.8609247198513035e-003 4.9571575468778933e-001
      1.5097785640103240e-001 -1.3013248903244874e+000
      9.0422434779320535e-002 1.0208497443857419e-001
      1.1242846834784673e-001 1.4056872904164722e-001
      -5.5811022795984233e-001 2.5022330492932110e-001
      5.4640094889719060e-001 6.1311317664969411e-001
      -3.1703105562178752e-001 1.8844896526107346e-001
      9.2381674970502348e-001 -7.2183964497754349e-001
      1.3043994143252746e-001 2.5758642280158995e-002
      -3.0592367477716476e-001 5.6197345240425141e-002
      4.8850972843476725e-001 5.2290849825134222e-001
      -1.1751254520810048e-001 -1.1791540683077009e+000
      7.2273028033116818e-002 2.8995462800613581e-001
      2.0515949558330621e-001 3.6312987303469141e-001
      -8.8251607936389753e-001 4.6484303145375633e-002
      7.6702904311060494e-001 8.0739729081328238e-001
      -4.7744576093445457e-001 2.3944906264193333e-001
      -2.0923798895270312e-001 -7.0948857805362464e-001
      4.2376003891719072e-001 -3.6901656936217769e-001
      -5.3300659296116504e-001 -1.0542911288644875e-001
      9.5800818119539344e-001 2.8329942603767089e-001
      -3.9965630608091579e-002 -1.3391735002544958e+000
      -2.3640370593512641e-001 3.8069754219595027e-002
      -1.1267503681531482e-001 6.0178755838105624e-001
      -7.6594815570171104e-001 2.8092097864765030e-002
      9.5708508323183983e-001 4.9924451110682327e-001
      1.9890906160943919e-001 6.0377144435811614e-001
      -1.2918188629036473e+000 -5.0099207525206280e-001
      7.2828918607474746e-001 -4.4270228630339659e-001
      -5.8225834137720278e-001 -2.5285899608550283e-001
      9.5587595680438153e-001 9.2164646640952003e-002
      2.8126812727449380e-001 -1.1976598030422037e+000
      -2.3030444937028324e-001 1.0109877339810162e-002
      -4.1312365333694684e-001 7.5013946181062452e-001
      -1.5667570262667291e-001 -4.5507630258660822e-002
      7.8137503812850451e-001 5.7331541942379904e-001
      5.9364281364717508e-001 8.0966744218330555e-001
      -5.7795673563423976e-003 -5.4844967387228643e-003
      1.9374195481277208e-003 -4.8696933553813923e-003
      -7.5670856414433545e-003 -3.3795410460878829e-003
      -2.8795289978934230e-003 -5.6338185198550423e-003
      -4.5583937146111003e-003 -9.6469200436648391e-004
      4.3098700381021511e-003 7.1369400719120705e-003
      2.5226690080640364e-003 8.3965396974867632e-004
      4.6200204027287115e-005 4.5523649451047130e-003
      5.2777324345264940e-003 -8.2489745032376710e-004
      2.9968827678558425e-003 1.3220329641970986e-003
      4.2337186012322992e-003 -5.2618640599358373e-003
      -1.6881408820219026e-003 -6.9085450733327258e-004
      3.3801700250766207e-004 5.7960703698903765e-003
      -2.7497029780888618e-003 1.3461092144755617e-003
      -4.2635487469359660e-003 -4.7835105935539564e-003
      6.1378849264220221e-003 -5.5062433391992400e-003
      -3.0767965173052734e-003 3.3996724191047255e-004
      2.1060202715994509e-003 4.5088856711979824e-003
      2.0903264099207427e-003 6.4329860261876743e-003
      -4.5883177891471111e-003 -8.1799399637801009e-004
      -1.2813112505602890e+001 4.6038328568723702e-001
      1.6847509378246073e-002 4.6631549696450569e-001
      1.2073668384366638e-001 -9.8189756864684053e-003
      -9.1699081035799199e-003 8.6171560510848150e-002
      -5.7346785449648843e-002 3.6016616541531118e-003
      -4.0883910163401795e-003 3.6649302519551030e-001
      2.5669830216129169e-001 9.7059821092257720e-002
      1.5606583057626738e-001 -3.1383180133292204e-001
      4.3399171828695748e-001 3.0208787221909067e-001
      -1.0878097506163974e-001 -4.0141777121804162e-001
      -1.8690099416855979e+001 7.4876385057756914e-002
      -2.4027975462878637e-001 1.7710495942136167e-001
      8.2725380138121729e-001 -1.5906376077882942e-001
      -6.7599654083415880e-002 4.2252251380090611e-001
      2.5977363442791729e-001 -2.7607141868602336e-001
      -1.1701239534038521e-001 1.9078580600296649e-001
      2.4511618212242740e-002 1.6882971945047345e-001
      -1.0695449111675293e-001 -1.7444437764993739e-001
      4.9888457521356555e-001 3.5230497865215045e-002
      2.6666036519664794e-002 -1.7247316480214353e-001
      -2.0174628458902980e+001 -1.7837227196550257e-001
      -3.1322977318123790e-001 6.1513746038389782e-003
      1.0464661264348962e+000 -8.3304389682440166e-002
      -2.4513061211609333e-001 5.1948194840268902e-001
      1.8032571203973688e-001 -2.0936553452487527e-001
      -6.7454334831011193e-003 2.0635093622866493e-001
      -4.3735357362428241e-003 2.2933529399873079e-001
      2.2378681013230931e-001 -1.6236205563611439e-001
      1.9269468326774747e-001 2.8702660864803858e-001
      1.5000560680987893e-001 -1.4841899908335526e-001
      -2.1620149069783693e+001 -3.3356831119492107e-002
      -4.8025591639255577e-001 1.8728007398082225e-001
      6.6180193456466674e-001 2.0868709762804527e-001
      -2.8367277439170135e-001 6.3459216514699535e-001
      -2.7045733804722449e-001 2.5001687176832410e-001
      1.6790681644743735e-001 4.2500827200581431e-001
      5.7099661553552961e-001 -3.8763049514686160e-001
      9.4005287141686356e-001 -4.8336011169536158e-001
      -3.4968733793675311e-001 2.9532689945654977e-001
      6.3799566417863185e-001 -3.8506930923474592e-001
      -1.4271042158028504e+001 9.1066679815912738e-002
      -2.2527531788175695e-001 3.4302829452717044e-002
      2.6561380854818162e-001 5.9725829241842643e-001
      -3.8241830254459375e-002 5.6445783669936644e-001
      -5.7359339813954369e-001 6.4145773318989818e-001
      6.0435560406567290e-001 5.1939032678760788e-001
      3.3200662878359399e-001 -6.6091548393550104e-001
      3.7567531067530158e-001 -7.0859954215427823e-001
      -5.2833950897563886e-001 1.8846800462478741e-001
      6.6201272976712855e-001 -2.4707720759617197e-001
      -2.7839386266480983e+000 3.1837279741918934e-001
      -2.0843578723784981e-001 6.8704739081639862e-002
      1.0163163098575098e-001 6.8811205485783455e-001
      6.6494889787614572e-002 4.1715140061841138e-001
      -6.2070760986946516e-001 7.1986608075531566e-001
      4.7229577613459306e-001 3.6803009439844730e-001
      4.3127786982814192e-001 -5.8175338605023619e-001
      1.7179538649386806e-002 -1.8639852094121093e-001
      -4.2904891138228807e-001 2.0784592030992161e-001
      3.9218806806960838e-001 -1.6174949701781852e-002
      6.7418943010357193e+000 -1.4767481924154982e-001
      -7.9894387637365019e-002 -1.6213629991105952e-001
      7.9510651262694992e-002 3.2505233396256777e-001
      5.7418731576130855e-001 4.5095033406679014e-001
      -3.8833668714856656e-001 5.6699638686435427e-001
      -1.7570881664101468e-001 -1.2608764812970621e-001
      1.9277939982832026e-001 -8.0599210305215763e-001
      -5.1492137492527101e-001 2.5811945417317134e-001
      -1.2570609364195551e-001 -2.5086609088712741e-001
      7.4832490212846756e-002 2.8053704592902400e-002
      8.6174848430897537e+000 -2.4605752309567205e-001
      -2.8473090952163865e-001 -1.9146030320280863e-001
      -3.5112030561920242e-002 4.4897945884836887e-001
      4.5916426417119860e-001 8.1300304502098297e-001
      -2.7910389831594806e-001 5.9760294736369246e-001
      -3.8998004775356993e-001 -4.7208551997813077e-002
      1.5402010570218830e-001 -9.6988404738515122e-001
      -7.0578596682801653e-001 -3.5807154958938758e-001
      -3.4508180562155777e-001 4.8948642000846970e-001
      -2.1220645257151985e-001 -5.9673782329676586e-002
      1.3768193612478981e+001 -1.4060979224991038e-001
      -4.3087030687308725e-001 -4.5485154356263219e-001
      -2.2870161611894674e-001 5.4759183126904898e-001
      -2.1737449481694823e-001 5.0822947707541788e-001
      -2.4129640023601542e-002 4.7561232241717509e-002
      -1.7560822288080223e-002 2.3905104980729817e-002
      1.2502901438471736e-001 -4.2667843880929063e-001
      -1.1738071828982086e-001 -2.3074711107483289e-001
      5.9253462901278843e-002 8.9636607017548187e-001
      -5.7642239394938533e-001 1.3768761898021284e-001
      1.0184175221988728e+001 -8.7859224922639845e-001
      -8.1224048350023581e-001 -1.7322002837111500e-001
      -3.1547131680598989e-001 6.8772641751363450e-001
      -5.3456017235630215e-001 6.5360200744075170e-001
      1.4915922533372894e-001 -4.9119239497984479e-001
      2.9118528293284790e-001 -7.4412449017715335e-002
      1.4333055492688690e-001 -2.1434360120277024e-001
      2.6371939842111347e-001 1.2120696080758281e-001
      3.7928527415149699e-001 9.5083824975135356e-001
      -5.4131833869175261e-001 1.4115154978609731e-001
      1.5570987793762265e+000 -9.9761529515498060e-001
      -3.1649031210673084e-001 6.5883343290864005e-001
      1.4622913358605369e-001 7.6157779044557783e-001
      -6.5420930867024429e-001 8.6149274940541365e-001
      -3.8112258285246897e-001 -6.6486726807298280e-001
      6.8917689925926473e-001 3.2413891868827011e-001
      4.4107022897830628e-001 -4.2131000174778038e-001
      2.8207826747754644e-001 1.1112717581074968e-001
      8.7875943929695799e-001 4.9853599721390296e-001
      -2.1618264318527236e-001 -1.3228024406389646e-001
      -2.1665516241795100e+000 -8.3855980765330440e-001
      -6.2113522571546828e-002 5.9110442879708647e-001
      4.4272699452697362e-001 4.0205868063959849e-001
      -1.8147449023565049e-001 2.9891141748331251e-001
      -5.5267320771623851e-001 -6.2783003261003156e-001
      2.7753810947956520e-001 4.6026043253243609e-001
      8.2011713013195353e-001 8.0635929423632818e-002
      -1.1619629188489422e-001 2.3066415918287228e-001
      8.9197048472335294e-001 1.6223030825127269e-001
      -5.3443258411590300e-001 -4.5517235675765523e-003
      3.1214806451300907e+000 -8.4634797707467524e-001
      3.8598565159658138e-001 1.3968166448368681e-003
      1.8054297817186585e-001 -3.6157460784154244e-001
      5.0975209520144538e-001 -2.2956598127791836e-001
      -2.2583935060764995e-001 -6.0782160029300392e-001
      -2.7048292793924672e-001 3.1686770665581376e-001
      8.1705920364011045e-002 5.6070721570083104e-001
      -1.5785656798133674e-001 3.5438347090610745e-001
      1.3126035318979821e+000 -8.3764572750204991e-002
      -3.7609174092914310e-001 7.3176534491109307e-002
      2.3960038426958317e+000 -7.4646494658160700e-001
      7.7504366041948458e-001 -5.3799798053975190e-001
      -1.7023927143739961e-001 -1.2065075127791201e+000
      7.7143163619580857e-001 -4.7551668714709755e-001
      3.9438188008076930e-001 -2.8924973392199338e-001
      -5.1877421191371831e-001 -2.7995199661833076e-001
      -7.5893258785629858e-001 6.4552675480195332e-001
